tree
version=v4
num_class=1
num_tree_per_iteration=1
label_index=0
max_feature_idx=5
objective=regression
feature_names=reversal_5 pb_inv ps_inv pe_inv volatility_20 turn_5
feature_infos=[-4.517495502999699:2.9922475798786068] [-4.0616153148300214:3.3502918719326424] [-3.6059140903425058:3.678446106851637] [-5.7813259439696401:3.8835400718382931] [-2.060135925916013:4.3461981027802299] [-1.4889101205647874:6.0652481225220454]
tree_sizes=2977 3155 3140 3155 3139 3134 3133 3116 3157 3149 3160 3136 3147 3152 3134 3145 3132 3142 3170 3145 3161 3097 3134 3143 3135 3128 3148 3127 3137 3166 3150 3149 3150 3146 3143 3122 3135 3117 3158 3169 3160 3151 3104 3116 3124 3133 3135 3072 3125 3137 3132 3099 3112 3113 3065 3113 3103 3110 3118 3101 3091 3112 3096 3170 3091 3127 3130 3015 3112 3094 3034 3066 3119 3121 3098 3074 3034 3081 3029 3076 3035 3045 3020 3075 3036 3074 3092 3058 3096 3085 2995 3071 2971 3073 3021 3084 3052 3009 3016 3003 3002 3116 3068 3050 2982 2958 3094 2934 2973 3067 3088 3105 3091 3056 3022 3049 2982 3025 2985 2987 3057 2997 3076 3095 2984 2946 2954 2929 2961 2996 3042 3060 3051 2954 3033 3013 3072 3073 3028 2963 2954 2936 2946 3025 2943 2997 3009 2977 2960 3008 3003 3015 3054 3004 3017 2958 2949 3062 3009 3068 2964 2968 2975 2966 2982 2970 2979 2983 2975 2972 3014 3003 3005 3000 3030 3101 3055 2962 2968 2973 3003 3037 2971 3011 2953 2971 2936 2959 2934 2944 3001 3051 3113 2974 3061 2977 2965 2967 2979 2975

Tree=0
num_leaves=31
num_cat=0
split_feature=4 4 0 5 5 4 5 4 2 0 0 2 2 2 2 2 4 0 3 0 0 5 5 5 4 4 0 5 2 2
split_gain=1793.72 232.438 194.318 122.663 85.2812 74.7376 65.9606 46.886 41.4358 29.5483 25.6391 24.7 23.4755 23.2306 21.4108 20.7648 22.282 18.5707 16.3734 15.9578 16.7894 39.6107 15.1483 14.2106 13.2451 12.6433 11.5764 10.8802 10.392 10.069
threshold=-0.093165134456351439 -0.54821554403554607 0.71818168518592584 0.054151946148668507 -0.27683599627093197 1.1002080312078628 -0.16394149527913479 0.2769478085096781 -1.2199691195191291 0.44393176408317853 0.75645610729542889 1.2485818556690123 -1.3730686084370023 -0.93711781721190568 -0.84623825855911095 1.7259654208192361 -0.98097359910709725 -0.29439015052622913 0.2802414088283709 0.33723413552777604 -2.7869856099437702 -0.57830475274128124 0.38369357094708811 0.77570987152940385 0.3386671976915106 0.3386671976915106 2.203314795641917 1.0000000180025095e-35 1.6410208316260395 1.7259654208192361
decision_type=2 2 2 2 2 2 2 2 2 2 2 2 2 2 2 2 2 2 2 2 2 2 2 2 2 2 2 2 2 2
left_child=1 4 3 7 10 25 9 -2 -5 -3 15 19 -6 -7 -8 16 -1 23 -18 20 21 -9 -16 -10 -19 -4 -15 -14 -11 -26
right_child=2 6 5 8 12 13 14 11 17 28 -12 -13 27 26 22 -17 18 24 -20 -21 -22 -23 -24 -25 29 -27 -28 -29 -30 -31
leaf_value=0.25780452369461532 0.26219766902635588 0.26045700642856978 0.26497158338117976 0.26371919389985438 0.25798004827493304 0.26681984360695071 0.26144779529695711 0.29068442935906574 0.26443946819542191 0.26195024241788128 0.26054371000940535 0.26712968817720589 0.2607295934374631 0.26894092114496926 0.26294337004632973 0.26105559488331709 0.25954279301040306 0.26524909958876058 0.25829692668403209 0.26529268813323154 0.26332554411348758 0.265247299226676 0.26499688273346478 0.26589892683309962 0.26701089144595852 0.26644597335513165 0.27149481984286211 0.26231051878386469 0.26576089117119633 0.27240138707826311
leaf_weight=70112 60993 85388 26147 31374 5314 11523 14697 185 29514 35527 18924 5959 22327 19023 24757 8296 55790 12789 50012 14261 60261 886 14093 38353 28977 32756 5787 21233 1884 893
leaf_count=70112 60993 85388 26147 31374 5314 11523 14697 185 29514 35527 18924 5959 22327 19023 24757 8296 55790 12789 50012 14261 60261 886 14093 38353 28977 32756 5787 21233 1884 893
internal_value=0.262434 0.260217 0.264937 0.264282 0.259242 0.266892 0.261609 0.263246 0.265323 0.26097 0.258791 0.26403 0.261117 0.268675 0.263073 0.258611 0.258496 0.265778 0.258954 0.263786 0.263436 0.269641 0.263688 0.265264 0.266596 0.265791 0.269537 0.2615 0.262142 0.267172
internal_weight=808035 428354 379681 284445 252008 95236 176346 142545 141900 122799 203134 81552 48874 36333 53547 184210 175914 110526 105802 75593 61332 1071 38850 67867 42659 58903 24810 43560 37411 29870
internal_count=808035 428354 379681 284445 252008 95236 176346 142545 141900 122799 203134 81552 48874 36333 53547 184210 175914 110526 105802 75593 61332 1071 38850 67867 42659 58903 24810 43560 37411 29870
is_linear=0
shrinkage=1


Tree=1
num_leaves=31
num_cat=0
split_feature=4 4 5 0 4 0 5 2 2 5 0 0 2 0 2 4 4 2 4 2 5 3 5 4 5 2 3 2 4 2
split_gain=1620.73 203.666 181.684 103.677 94.6044 62.9432 77.4224 37.7881 25.3571 23.6407 23.3745 21.2715 20.5887 19.3508 19.1773 18.3987 18.1115 17.3701 14.5652 14.0478 20.1476 13.5793 13.2201 10.9482 10.3521 9.57439 9.35009 9.17651 9.16277 9.01848
threshold=-0.15453906607919896 0.79353633040045179 -0.25472499006776567 0.35304371805194418 -0.57874093580404773 0.4792210424115057 0.020668111627501252 -1.0700575478204137 -1.1270982321612126 0.16435316971981803 0.75645610729542889 1.0706339587225104 1.6820608844563434 1.8594598440323169 1.7259654208192361 -0.98097359910709725 0.18460408101731821 -1.1578586432123394 0.35189923156119179 -1.466204013052907 0.33167458146436946 0.1080499359107548 0.86814685963924587 -0.59470558562398079 -0.54403151045776876 -1.1877381718522118 -0.20814155459391137 2.0314480535585884 -0.44305940135292393 1.7750433161548214
decision_type=2 2 2 2 2 2 2 2 2 2 2 2 2 2 2 2 2 2 2 2 2 2 2 2 2 2 2 2 2 2
left_child=2 5 4 12 10 6 16 -4 -5 26 14 28 19 29 15 25 27 -8 -7 -3 -21 -17 -19 -11 -13 -1 -9 -2 -6 -10
right_child=1 3 7 8 11 18 17 9 13 23 -12 24 -14 -15 -16 21 -18 22 -20 20 -22 -23 -24 -25 -26 -27 -28 -29 -30 -31
leaf_value=-0.006417105000512369 -0.00079389079216938153 0.0010489604533136952 -0.0024690657191970464 0.0034183969806591205 -0.0025065747993654121 0.0020083494761711572 0.00051677615307000528 0.00032394923202328684 0.0050614023119428305 -0.00010210850354781102 -0.0017877835767741411 0.0030132410421596922 0.00734689442378611 0.0075550229883031231 -0.0013070311147740229 -0.002704359468221236 0.00062534518419334007 0.0018641157631822465 0.0034739090928165035 0.0018518704356978617 0.0034672488079904636 -0.0038751709042108666 0.0034387271729544055 0.0017881453584924379 -0.00071296329554914066 -0.0042405311667233214 -0.0011296476456517132 0.0044552470951497412 -0.001508020806284394 0.0096930793186414052
leaf_weight=5476 52605 14677 18162 15247 35479 44496 14161 16687 35553 12149 17977 3257 2214 11427 8135 44478 48261 34271 27388 35296 42599 55878 21815 20733 4358 65327 32824 846 65176 1083
leaf_count=5476 52605 14677 18162 15247 35479 44496 14161 16687 35553 12149 17977 3257 2214 11427 8135 44478 48261 34271 27388 35296 42599 55878 21815 20733 4358 65327 32824 846 65176 1083
internal_value=-2.03118e-05 0.00223053 -0.00224811 0.00362833 -0.00285482 0.00132426 0.000804874 -0.000404593 0.00519503 5.04811e-05 -0.00350662 -0.00166723 0.00258189 0.00575863 -0.00367896 -0.00379169 -7.68218e-05 0.0020815 0.00256673 0.00246792 0.00273528 -0.00335626 0.00247657 0.00108975 0.000880766 -0.00440887 -0.000639733 -0.00071081 -0.00185999 0.00519832
internal_weight=808035 401939 406096 158096 305541 243843 171959 100555 63310 82393 197271 108270 94786 48063 179294 171159 101712 70247 71884 92572 77895 100356 56086 32882 7615 70803 49511 53451 100655 36636
internal_count=808035 401939 406096 158096 305541 243843 171959 100555 63310 82393 197271 108270 94786 48063 179294 171159 101712 70247 71884 92572 77895 100356 56086 32882 7615 70803 49511 53451 100655 36636
is_linear=0
shrinkage=0.05


Tree=2
num_leaves=31
num_cat=0
split_feature=5 0 0 5 1 1 2 0 5 0 5 0 0 5 3 1 3 2 5 5 0 2 0 1 2 2 0 2 3 2
split_gain=918.914 243.231 103.209 75.2437 53.111 54.3149 50.3894 44.7766 36.606 36.0926 26.528 25.2391 25.13 24.0508 23.0713 20.3258 17.4002 15.9587 15.1753 14.2728 13.6346 12.0711 11.921 11.2965 10.5588 10.0935 10.0122 9.72711 11.8335 9.02467
threshold=-0.16394149527913479 0.91686104692625936 0.91686104692625936 0.33167458146436946 -0.49692830151205375 1.8354838904526212 -1.4179875378618181 1.5290330385702788 -0.29779541222733436 -2.7869856099437702 -0.57830475274128124 0.5742602286732118 2.4385276987182132 -0.62831710271529706 0.26214667337753683 1.2840554537336273 1.6668201707614847 -1.1121618953734453 1.1692921845843205 0.83446368431336282 -2.2660613347392569 1.0755250272965646 -0.89965817623886191 0.40583378858653302 -1.0567508504165055 1.1097554573825932 -0.80512579253207228 -1.0831596191622528 -0.17016386407179399 -1.7138903516580239
decision_type=2 2 2 2 2 2 2 2 2 2 2 2 2 2 2 2 2 2 2 2 2 2 2 2 2 2 2 2 2 2
left_child=1 4 3 15 9 8 -5 -3 11 10 -1 14 17 22 20 27 23 -4 -8 -19 -6 -22 -11 25 -14 -16 -25 -2 -29 -15
right_child=2 7 12 6 5 -7 18 -9 -10 13 -12 -13 24 29 16 -17 -18 19 -20 -21 21 -23 -24 26 -26 -27 -28 28 -30 -31
leaf_value=0.029777426517898255 -0.000436616817095066 0.00097280582675632202 0.0020802409944390729 0.00032130118641660461 0.0080569192721850966 0.0012437187787089181 0.0022928710517204679 0.0043351818348795991 -0.00079538077384466916 0.002284813502647586 0.0036924246050085621 -0.001210510857309896 0.0035270589795189829 -0.002344358826591893 -0.0028632564809238118 0.0033838030517896502 -0.0013032703671425068 0.0035360662130034834 0.0033966852496006093 0.0056093567491576797 -0.002322143156700028 -0.0006345996152211735 -0.0023500555719446359 -0.0013611163844159924 0.0089050205475028881 0.00019844450435658234 -0.0038444122487354157 0.001422442661278179 0.00025498018597099411 -0.00033369853896519995
leaf_weight=161 21178 39267 11790 24822 329 11601 69689 13240 38300 1458 247 35744 1235 6011 39454 6596 12111 26676 56287 12051 96699 11901 28618 4328 3497 2889 65291 38033 50560 77972
leaf_count=161 21178 39267 11790 24822 329 11601 69689 13240 38300 1458 247 35744 1235 6011 39454 6596 12111 26676 56287 12051 96699 11901 28618 4328 3497 2889 65291 38033 50560 77972
internal_value=-1.92963e-05 -0.00139318 0.00205005 0.00164324 -0.0017828 -0.00211465 0.00238035 0.00182065 -0.00224154 -0.000859003 0.0139858 -0.00244764 0.00401725 -0.000912104 -0.00263742 0.000688034 -0.00310361 0.00369089 0.00278606 0.00418123 -0.00210642 -0.00213721 -0.00212537 -0.00329835 0.00750143 -0.00265436 -0.00369003 0.000526049 0.000756172 -0.00047761
internal_weight=808035 485621 322414 267165 433114 318647 150798 52507 307046 114467 408 268746 55249 114059 233002 116367 124073 50517 125976 38727 108929 108600 30076 111962 4732 42343 69619 109771 88593 83983
internal_count=808035 485621 322414 267165 433114 318647 150798 52507 307046 114467 408 268746 55249 114059 233002 116367 124073 50517 125976 38727 108929 108600 30076 111962 4732 42343 69619 109771 88593 83983
is_linear=0
shrinkage=0.05


Tree=3
num_leaves=31
num_cat=0
split_feature=4 4 5 4 4 5 2 2 1 2 2 1 5 2 1 5 2 4 4 2 1 2 4 2 1 5 2 1 1 1
split_gain=1390.64 218.764 121.052 57.0135 49.5624 38.0501 35.5863 29.7915 29.3636 22.7286 21.8548 21.6311 20.1074 15.8978 14.8154 14.4322 12.9501 12.2532 12.0232 10.907 13.8542 10.6791 9.31595 9.23902 9.19765 8.4946 7.90297 7.84455 7.81849 7.18839
threshold=-0.24919681169662036 0.32597628775368775 -0.29779541222733436 -0.76149023329396492 0.93455483581064003 0.054151946148668507 -1.1419826800317494 -1.3730686084370023 1.4836237190500783 -1.1419826800317494 1.4705197192650437 1.5855608766766751 1.0000000180025095e-35 1.2485818556690123 1.6689911335173033 0.15108599352941143 -0.14089624975693252 0.038369315382664755 -0.44305940135292393 -1.0567508504165055 0.25500911406991922 -1.2199691195191291 -0.11985602053863169 1.8281505143874688 1.9073779855547202 0.34789616135333495 1.7259654208192361 -0.066403452903789184 -2.1685471741058122 -0.42159419465238629
decision_type=2 2 2 2 2 2 2 2 2 2 2 2 2 2 2 2 2 2 2 2 2 2 2 2 2 2 2 2 2 2
left_child=2 5 3 11 13 8 28 -4 17 -7 25 19 23 15 18 24 -14 -2 29 -1 -21 -17 -10 -9 27 -8 -22 -3 -6 -5
right_child=1 4 7 14 6 9 10 12 22 -11 -12 -13 16 -15 -16 21 -18 -19 -20 20 26 -23 -24 -25 -26 -27 -28 -29 -30 -31
leaf_value=-0.0051384433986189828 -0.00048314481781334999 0.0018408480182928962 -0.0033741237361223884 -0.0017516284443954155 0.00020433097295713539 -0.00035695339878109964 0.0033009295284264564 -0.0013211437554830803 0.00049111444476965791 0.0021699764934545534 0.0071595104560533418 -0.0012644732534594859 -0.0005750029654790922 0.0042088604718809111 0.00037651529645367797 0.0011872449132408389 0.0011804002454641278 0.00053414900488549331 -0.0015250637282061322 -0.0028953731549448188 -0.0041236674665876393 0.0030065926662479927 0.0045732818055322054 0.0028666385878782738 0.010007308457058725 0.004243918007613868 -0.0016437953965525575 0.00068708320308182296 0.0024133624646245043 -0.002810123872134346
leaf_weight=11893 72060 37458 9756 21510 4611 11091 44995 43661 1998 45019 5103 9847 20477 8224 5874 10408 21578 50236 44425 47862 65659 35840 4651 1358 311 50896 3378 24283 30504 63069
leaf_count=11893 72060 37458 9756 21510 4611 11091 44995 43661 1998 45019 5103 9847 20477 8224 5874 10408 21578 50236 44425 47862 65659 35840 4651 1358 311 50896 3378 24283 30504 63069
internal_value=-1.83314e-05 0.0018897 -0.0022733 -0.00281115 0.00284641 0.000583615 0.00349439 -0.000754014 0.000110665 0.00167049 0.00397111 -0.00352318 -0.00046045 0.00208951 -0.00207928 0.00192857 0.000325677 -6.52671e-05 -0.0021911 -0.00369587 -0.00354911 0.00259715 0.00334661 -0.00119482 0.00143027 0.00380144 -0.00400233 0.00138707 0.00212329 -0.00254093
internal_weight=808035 437688 370347 273517 252633 185055 136109 96830 128945 56110 100994 138639 87074 116524 134878 108300 42055 122296 129004 128792 116899 46248 6649 45019 62052 95891 69037 61741 35115 84579
internal_count=808035 437688 370347 273517 252633 185055 136109 96830 128945 56110 100994 138639 87074 116524 134878 108300 42055 122296 129004 128792 116899 46248 6649 45019 62052 95891 69037 61741 35115 84579
is_linear=0
shrinkage=0.05


Tree=4
num_leaves=31
num_cat=0
split_feature=4 4 0 4 4 1 2 0 4 1 1 4 0 0 2 1 0 1 2 1 0 3 1 2 3 4 2 2 4 0
split_gain=1256.29 166.742 144.837 64.21 59.2113 31.3593 29.5538 27.5419 22.0508 20.3648 19.1831 16.2944 15.8023 14.3495 13.3824 13.2391 12.2619 11.545 11.3045 11.9342 9.77618 9.77384 9.7423 9.04975 8.9338 8.9249 8.45671 8.17308 7.99133 7.76159
threshold=-0.093165134456351439 -0.54821554403554607 0.60611255031189681 0.2769478085096781 0.77502466925506808 1.6689911335173033 1.4705197192650437 -0.77090757734920812 -0.84650265086771925 1.5139772993274685 -1.58649413212321 0.89273141889460794 0.44393176408317853 0.868565343859795 -1.4420475941815811 1.8354838904526212 2.203314795641917 1.4836237190500783 -1.0831596191622528 0.22151446402473557 -0.23245994447674381 -1.6156430375713005 -0.087931048116610525 -1.3730686084370023 0.17847601235211658 -0.28234577193171945 1.7259654208192361 0.5415956552183393 -0.25745321477195737 0.3928623059708487
decision_type=2 2 2 2 2 2 2 2 2 2 2 2 2 2 2 2 2 2 2 2 2 2 2 2 2 2 2 2 2 2
left_child=1 5 3 9 17 7 11 -1 13 -2 -6 22 25 18 -13 28 -12 23 -9 -20 -16 -7 27 -4 -10 -3 -21 -5 -14 -26
right_child=2 12 4 6 10 21 -8 8 24 -11 16 14 15 -15 20 -17 -18 -19 19 26 -22 -23 -24 -25 29 -27 -28 -29 -30 -31
leaf_value=-0.00068167121077267667 0.00018704260541653754 -0.00133661501362713 0.00021979554345252238 0.0016268400995257796 0.0024077898046644276 0.0067023120912884891 0.005116733654588564 -0.0049890572209383491 -0.0019635483274229497 0.0040420025874926295 0.004803842730777704 0.00099378489668167113 -0.00055923512727191907 -0.00097708436962173732 0.0021835102224082247 0.0046661581829288935 0.006927837854890144 0.0056167979273195725 -0.0027112562729472945 -0.0039368263272644439 0.003374165974159845 -0.00054377529249396376 0.00065831676613204305 0.0025101731767873505 -0.0033147109831799903 -0.00047784482873229964 -0.0013205791717480399 0.0044089824974322496 0.00078095613910001197 -0.0019787487786852519
leaf_weight=14086 83791 75650 4748 52335 7187 484 7261 11981 52384 3572 37888 15577 31604 5757 48889 1510 8280 2764 41679 59795 26631 12090 30922 47056 34653 50418 3257 2780 17164 15842
leaf_count=14086 83791 75650 4748 52335 7187 484 7261 11981 52384 3572 37888 15577 31604 5757 48889 1510 8280 2764 41679 59795 26631 12090 30922 47056 34653 50418 3257 2780 17164 15842
internal_value=-1.74149e-05 -0.00187354 0.00207666 0.00146124 0.00362631 -0.00269876 0.00199026 -0.00282657 -0.00296065 0.00034466 0.00481071 0.0018621 -0.000694264 -0.00341397 0.00232815 5.52163e-05 0.00518477 0.00246824 -0.00353417 -0.00336773 0.00260338 -0.000264858 0.00136865 0.00230025 -0.002421 -0.00099317 -0.00380168 0.00176717 -8.7552e-05 -0.00289557
internal_weight=808035 428354 379681 271758 107923 252008 184395 239434 225348 87363 53355 177134 176346 122469 91097 50278 46168 54568 116712 104731 75520 12574 86037 51804 102879 126068 63052 55115 48768 50495
internal_count=808035 428354 379681 271758 107923 252008 184395 239434 225348 87363 53355 177134 176346 122469 91097 50278 46168 54568 116712 104731 75520 12574 86037 51804 102879 126068 63052 55115 48768 50495
is_linear=0
shrinkage=0.05


Tree=5
num_leaves=31
num_cat=0
split_feature=4 4 0 5 5 4 5 4 2 0 1 1 2 1 0 2 4 0 1 1 1 5 0 5 4 5 4 2 1 0
split_gain=1134.57 143.619 128.634 89.8096 56.2854 54.9286 42.3664 26.0318 25.4258 21.3378 20.9641 19.9332 18.5047 17.3521 16.6961 15.3091 15.1938 13.8806 13.138 13.0504 12.821 11.8905 11.1651 30.4378 10.9985 10.086 9.22394 9.08607 8.71416 8.34318
threshold=-0.11985602053863169 -0.57874093580404773 0.50717398865464991 0.054151946148668507 -0.27683599627093197 0.93455483581064003 -0.16394149527913479 0.21797879585321459 -1.0432586566352169 0.48835934294905808 -1.0287949003105747 1.6689911335173033 1.2485818556690123 -1.5576299221282823 -0.29439015052622913 -0.84623825855911095 -1.1012649475328571 2.203314795641917 1.4534944815745376 1.3999665120710045 1.4534944815745376 1.2127450349208979 -2.7869856099437702 -0.59022136145706583 0.35189923156119179 0.43980269177389658 0.22897455193130287 1.5338096507786432 0.088452567190410863 1.1953412006111817
decision_type=2 2 2 2 2 2 2 2 2 2 2 2 2 2 2 2 2 2 2 2 2 2 2 2 2 2 2 2 2 2
left_child=1 4 3 7 11 20 9 19 -5 28 -6 16 22 -7 21 -8 -1 -15 -11 -2 24 27 23 -9 -4 -17 -16 -10 -3 -18
right_child=2 6 5 8 10 13 15 12 14 18 -12 -13 -14 17 26 25 29 -19 -20 -21 -22 -23 -24 -25 -26 -27 -28 -29 -30 -31
leaf_value=-0.0038625396985720473 -0.00065045979859455435 -0.0011501800520258253 0.0016761091899935171 0.0011616818156221264 -0.0035215309289111313 0.0023325911350091859 -0.00093895231878551389 0.024568866127067143 0.0014631469172599783 -0.00046760454589909827 -0.00055299510275377036 -0.00082343670452624722 0.0036690840323395086 0.004543233520609479 0.0021495272491102715 0.00040019060360961431 -0.002884196036350266 0.0069210303064761421 0.0031933867608479349 0.0027739768503357038 0.0052781751317081587 0.0030390671746398021 0.00068311422346964282 0.0020621556296353824 0.0029387616697790259 0.002120761099563486 0.0040892819193458383 0.0051954997604251821 -0.002128205269124142 -6.1896084645677259e-05
leaf_weight=48112 49743 45438 37262 38854 7052 7346 14403 180 35550 32719 37972 10156 5891 34431 8198 25590 133421 7469 2649 2947 3708 25290 73225 908 32108 12767 24279 1709 45664 2671
leaf_count=48112 49743 45438 37262 38854 7052 7346 14403 180 35550 32719 37972 10156 5891 34431 8198 25590 133421 7469 2649 2947 3708 25290 73225 908 32108 12767 24279 1709 45664 2671
internal_value=-2.86596e-06 -0.00180954 0.00194086 0.00132525 -0.0026109 0.00328342 -0.000739227 0.000404454 0.00223927 -0.00123574 -0.00101795 -0.00297991 0.000971653 0.00457411 0.00267987 0.000450965 -0.0030988 0.00496709 -0.000193403 -0.000458928 0.00241365 0.00220231 0.00075782 0.00578569 0.00226053 0.000972877 0.00359964 0.00163434 -0.00164041 -0.0028288
internal_weight=807712 418614 389098 266774 239384 122324 179230 132894 133880 126470 45024 194360 80204 49246 95026 52760 184204 41900 35368 52690 73078 62549 74313 1088 69370 38357 32477 37259 91102 136092
internal_count=807712 418614 389098 266774 239384 122324 179230 132894 133880 126470 45024 194360 80204 49246 95026 52760 184204 41900 35368 52690 73078 62549 74313 1088 69370 38357 32477 37259 91102 136092
is_linear=0
shrinkage=0.05


Tree=6
num_leaves=31
num_cat=0
split_feature=4 4 4 0 0 0 2 4 4 2 2 1 2 1 4 4 3 2 0 3 2 2 1 2 0 2 2 1 2 0
split_gain=1026.62 147.039 92.3765 88.0236 28.4292 23.5011 21.2843 21.0713 20.613 19.5745 17.6006 16.6346 14.4234 12.3088 11.9721 11.3971 10.7884 12.183 10.7839 9.18459 9.22496 8.90859 8.55453 7.74335 7.57547 7.40363 7.20695 6.69854 9.00707 7.3522
threshold=-0.2144235582889282 0.35189923156119179 -0.57874093580404773 0.37683076790285175 0.51649255979446662 -0.47814649384423064 1.7259654208192361 -1.144072503144083 1.2610497416414346 1.8843663245419404 -0.93711781721190568 1.7173530212035557 1.4705197192650437 1.6689911335173033 0.89273141889460794 0.038369315382664755 0.026226733304875901 -1.7138903516580239 2.203314795641917 0.11758770633599282 -1.0700575478204137 -1.4179875378618181 1.4534944815745376 -1.0831596191622528 1.0083613632613189 0.94038624328337705 1.5338096507786432 0.34749379851325907 1.2919357413798245 0.75645610729542889
decision_type=2 2 2 2 2 2 2 2 2 2 2 2 2 2 2 2 2 2 2 2 2 2 2 2 2 2 2 2 2 2
left_child=2 4 5 9 11 -1 7 23 25 14 -10 15 16 19 -3 -2 17 -4 26 20 -9 -16 -6 -7 -24 -5 -12 28 -21 -29
right_child=1 3 12 8 22 6 -8 13 10 -11 18 -13 -14 -15 21 -17 -18 -19 -20 27 -22 -23 24 -25 -26 -27 -28 29 -30 -31
leaf_value=-0.0012221601200052934 -0.00034480159028753933 0.0011743446558229013 -0.0034096799159597222 0.0028446948620640729 0.0014731701873588389 -0.0057012710621697129 -0.00040611370427473808 -0.0033289598581559168 0.0030448782858596138 0.0061830142624721869 0.0045968051839690317 0.0036402815471430049 0.001014768280398386 -6.0567818468781334e-05 0.00096588243205407366 0.00060404368603034263 -0.0014477009056184916 -0.00038971019056358437 0.0073571647352356764 -0.0025513193025282375 -0.001899852054381232 0.0023088786013970362 0.0017949197789747938 -0.0035385182366748039 0.0070900059941606079 0.0046186827603168319 0.0087849040936234923 -0.0035619944477188643 0.002493180952042047 -0.0015635551273026364
leaf_weight=32132 64616 66439 3529 47083 45389 4647 9842 14104 12637 2449 19939 3447 9413 4933 15007 62028 68749 62210 5192 30870 56639 69693 1390 37830 1314 6721 1083 42312 911 5164
leaf_count=32132 64616 66439 3529 47083 45389 4647 9842 14104 12637 2449 19939 3447 9413 4933 15007 62028 68749 62210 5192 30870 56639 69693 1390 37830 1314 6721 1083 42312 911 5164
internal_value=-2.72263e-06 0.00169125 -0.00187852 0.0024829 0.000597208 -0.00248035 -0.00267542 -0.00278856 0.00370002 0.00174865 0.00457765 0.000213204 -0.000877357 -0.00251808 0.0016768 0.000119926 -0.00100979 -0.000551828 0.00531655 -0.0025989 -0.00218477 0.00207093 0.00163593 -0.00377512 0.00436805 0.00306629 0.00481257 -0.00296854 -0.00240672 -0.00334462
internal_weight=807712 424427 383285 246243 178184 239384 207252 197410 92655 153588 38851 130091 143901 154933 151139 126644 134488 65739 26214 150000 70743 84700 48093 42477 2704 53804 21022 79257 31781 47476
internal_count=807712 424427 383285 246243 178184 239384 207252 197410 92655 153588 38851 130091 143901 154933 151139 126644 134488 65739 26214 150000 70743 84700 48093 42477 2704 53804 21022 79257 31781 47476
is_linear=0
shrinkage=0.05


Tree=7
num_leaves=31
num_cat=0
split_feature=5 0 5 0 2 1 1 0 0 0 0 1 5 3 5 0 5 3 0 0 1 0 2 5 2 2 5 5 0 1
split_gain=592.341 147.872 79.1203 53.3886 48.6292 41.0683 36.1267 32.8007 30.5529 22.6174 22.1939 20.255 19.4266 18.1684 13.7482 13.0353 12.0308 11.8032 10.8747 10.678 10.3987 9.06346 8.52238 8.3079 10.8088 8.23102 8.04565 8.0147 7.8099 7.62737
threshold=-0.22510811723767077 1.0083613632613189 0.43980269177389658 1.2853442697364932 -1.0432586566352169 -0.33332067530948123 1.7711294326309861 -2.7869856099437702 -0.14251022773864983 0.4792210424115057 1.5290330385702788 1.2840554537336273 -0.59022136145706583 0.1080499359107548 -0.62831710271529706 2.4385276987182132 1.0000000180025095e-35 1.8377412782365339 0.49776082414388417 -1.059175059471021 -2.1685471741058122 2.3260266183193097 0.23324718873521677 1.4749788016775651 1.564652157033102 -1.0567508504165055 -0.85069981457392596 0.83446368431336282 -2.2660613347392569 2.1042428129116719
decision_type=2 2 2 2 2 2 2 2 2 2 2 2 2 2 2 2 2 2 2 2 2 2 2 2 2 2 2 2 2 2
left_child=1 5 3 11 20 7 9 12 23 13 -3 16 -1 28 19 27 18 -15 -2 26 -4 -5 -16 24 -6 -18 -9 -10 -7 -8
right_child=2 10 4 21 8 6 29 14 15 -11 -12 -13 -14 17 22 -17 25 -19 -20 -21 -22 -23 -24 -25 -26 -27 -28 -29 -30 -31
leaf_value=0.026560399155406391 -0.00033601425614785546 0.00096858458661036248 -0.00091099628678833968 0.0029247774691898514 0.0014803077808475448 0.0063404651412626552 -0.00027419390269962533 0.010976287545893975 0.0028131863716923979 -0.0010230578900316523 0.0035655934540698257 0.0028189103393598471 0.0035708890333771707 -0.0026261454262940238 -0.00060282581433889957 0.0076803712598356808 -7.3388331948252112e-05 -0.00061918869144805171 0.001086464380270983 -0.0017293049471816182 0.0013033589955924246 0.0059199330416557037 0.0010244058480042846 0.0028532953410706275 0.0053915527969006253 0.0011174325315665187 0.0009481099286940709 0.0041259067628653581 -0.0015980555742294254 0.0021297476348837233
leaf_weight=170 59818 27051 6041 14932 34747 311 8070 253 18405 55198 11822 9421 200 127916 83808 2082 18714 7771 17328 36684 43329 3040 8901 25601 1861 64613 955 31575 81513 5582
leaf_count=170 59818 27051 6041 14932 34747 311 8070 253 18405 55198 11822 9421 200 127916 83808 2082 18714 7771 17328 36684 43329 3040 8901 25601 1861 64613 955 31575 81513 5582
internal_value=-2.58648e-06 -0.00119113 0.00153997 0.000839855 0.00234373 -0.00146587 -0.0018013 -0.000732447 0.00291027 -0.00192696 0.00175838 0.00056571 0.0141336 -0.00215634 -0.000774563 0.00380398 0.00043343 -0.0025112 -1.6507e-05 -0.00157699 0.00103241 0.00343141 -0.000446595 0.00216234 0.00167914 0.000849992 0.00304838 0.0036425 -0.00156788 0.000708724
internal_weight=807712 456205 351507 187866 163641 417332 286361 130971 114271 272709 38873 169894 370 217511 130601 52062 160473 135687 77146 37892 49370 17972 92709 62209 36608 83327 1208 49980 81824 13652
internal_count=807712 456205 351507 187866 163641 417332 286361 130971 114271 272709 38873 169894 370 217511 130601 52062 160473 135687 77146 37892 49370 17972 92709 62209 36608 83327 1208 49980 81824 13652
is_linear=0
shrinkage=0.05


Tree=8
num_leaves=31
num_cat=0
split_feature=4 4 5 4 4 5 2 2 1 2 5 1 2 5 2 5 1 4 1 3 1 5 2 2 1 1 2 4 3 3
split_gain=884.064 148.367 84.3561 35.6615 32.0122 25.9394 25.5982 24.2455 23.2741 14.3213 14.1077 12.7875 11.6382 11.5096 10.9766 10.8379 10.4789 9.73231 9.70221 10.6308 9.15143 9.03557 8.794 8.76626 8.833 7.31365 7.27504 7.27169 6.96459 6.69854
threshold=-0.28234577193171945 0.32597628775368775 -0.27683599627093197 -0.76149023329396492 0.93455483581064003 0.38369357094708811 -1.0700575478204137 -0.98913001837907222 1.4534944815745376 1.4705197192650437 1.0000000180025095e-35 1.6249077947469861 -0.84623825855911095 0.80480732170449443 1.5338096507786432 0.24985144892246938 1.5139772993274685 0.097644364801908259 0.13304803514243976 1.7771512612880345 -2.0628191478242628 -0.74531523758095697 -1.310957932870521 -0.98913001837907222 0.11101222686479537 -0.31049688471925896 2.0314480535585884 1.487875783578767 -0.49197915502227313 -1.5039136998281515
decision_type=2 2 2 2 2 2 2 2 2 2 2 2 2 2 2 2 2 2 2 2 2 2 2 2 2 2 2 2 2 2
left_child=2 5 3 11 14 8 -4 20 17 13 26 23 -7 27 15 -3 18 25 -5 21 -6 -20 -17 -1 -25 -2 -8 -9 -27 -18
right_child=1 4 6 16 7 12 10 9 -10 -11 -12 -13 -14 -15 -16 22 29 -19 19 -21 -22 -23 -24 24 -26 28 -28 -29 -30 -31
leaf_value=-0.0041747446991775763 0.00024413210184309173 0.0011794965831327764 -0.0023543329568623591 -0.0013696959474949113 5.4008316495740899e-05 0.00037591408441662314 -0.00090316463179192772 0.0021216148583159092 0.0027246770967612839 0.00583923733625642 0.00060745028008072494 -0.00099723844644388892 0.0022390854717148595 0.0038413871382296655 0.004045673364174128 0.00072648444407796353 0.0056499154437856984 0.00064076134058365579 -0.00081595056577402644 0.00065603647487361225 0.0021187427399711736 -0.002647927987425908 0.0025412183950100889 -0.0022219155085129931 -0.0031386202624697789 0.00066095852197553876 0.0044360970510886263 0.0032786617055535318 -0.00082133561475141695 -0.00033312159472062255
leaf_weight=13533 45388 69059 15226 61372 6272 12530 34526 29306 8422 5058 35591 8767 25315 32918 4653 8270 498 44976 7756 2979 37177 50911 34630 39542 78337 9360 650 25304 51667 7719
leaf_count=13533 45388 69059 15226 61372 6272 12530 34526 29306 8422 5058 35591 8767 25315 32918 4653 8270 498 44976 7756 2979 37177 50911 34630 39542 78337 9360 650 25304 51667 7719
internal_value=-2.45718e-06 0.00147125 -0.00185922 -0.00229159 0.00227401 0.000445163 -0.000494535 0.00279511 0.000166428 0.00325238 -9.43863e-05 -0.00284614 0.00162221 0.00310289 0.00166612 0.00156723 -0.00169925 2.41109e-05 -0.00181472 -0.00225778 0.00182069 -0.00240573 0.00219139 -0.00296948 -0.00283112 -0.000236515 -0.000804503 0.00265774 -0.000593989 2.94867e-05
internal_weight=807712 450305 357407 271414 252647 197658 85993 136035 159813 92586 70767 140179 37845 87528 116612 111959 131235 151391 123018 61646 43449 58667 42900 131412 117879 106415 35176 54610 61027 8217
internal_count=807712 450305 357407 271414 252647 197658 85993 136035 159813 92586 70767 140179 37845 87528 116612 111959 131235 151391 123018 61646 43449 58667 42900 131412 117879 106415 35176 54610 61027 8217
is_linear=0
shrinkage=0.05


Tree=9
num_leaves=31
num_cat=0
split_feature=4 4 5 0 4 0 5 5 2 4 2 2 5 2 0 2 2 0 0 5 0 0 0 2 3 3 3 3 3 4
split_gain=797.868 133.901 76.1314 73.0175 32.1845 25.5147 30.7798 23.3147 23.1024 17.559 14.1192 13.2378 12.7322 12.2456 11.3017 10.4629 9.91554 9.7767 9.35579 24.8117 8.72783 10.5396 8.48035 7.94684 7.77135 7.68813 9.65402 7.58811 7.53126 7.06271
threshold=-0.28234577193171945 0.32597628775368775 -0.27683599627093197 0.37683076790285175 -0.76149023329396492 0.49776082414388417 0.076613822394160772 0.065077810428505703 -1.0700575478204137 0.95637077967366546 -1.4179875378618181 -1.0974229689018309 1.0000000180025095e-35 1.7259654208192361 1.1953412006111817 1.2485818556690123 1.8843663245419404 2.203314795641917 -2.7869856099437702 -0.59022136145706583 0.75645610729542889 -0.38100284759193198 -0.29439015052622913 -0.98913001837907222 -0.45932393411085187 1.7771512612880345 0.2802414088283709 0.090357897370287557 2.4343055934840674 2.4231392840931085
decision_type=2 2 2 2 2 2 2 2 2 2 2 2 2 2 2 2 2 2 2 2 2 2 2 2 2 2 2 2 2 2
left_child=2 5 4 7 13 6 -2 15 -4 -5 -9 -11 -10 20 25 18 22 -13 19 -3 21 -1 -12 -23 -20 26 -6 -25 -26 -19
right_child=1 3 8 9 14 -7 -8 10 12 11 16 17 -14 -15 -16 -17 -18 29 24 -21 -22 23 -24 27 28 -27 -28 -29 -30 -31
leaf_value=-0.0017597400149245244 -0.00041271452922308523 0.022258266136887368 -0.0022366163508620853 0.0024937460500535765 -0.001393996621254689 0.0013462235185252697 0.001177419519429606 0.00067236707475707628 -0.00076427783292614662 0.0025073287850342994 0.0018752806760170368 0.0039713341201542433 0.00057707780939727962 -0.00066712297782920392 0.00070415670896147291 0.0031044076112336175 0.0064538967077221194 0.0049061866697517912 0.0012009883671810053 0.0018353344526438589 -0.0014068633210750038 -0.0043739014122049598 0.0030450263521922595 -0.0024040242745609545 -3.1744123141345285e-05 0.00030410749930095195 -0.0022932511359547276 -0.0033198937501274111 0.0096037305161064748 0.0083519890143488058
leaf_weight=16692 99550 178 15226 41980 69014 54276 43832 16472 35176 13420 54551 32778 35591 7011 5054 4441 1400 4378 23662 904 10217 11153 21641 37045 34386 4579 52588 58061 204 2252
leaf_count=16692 99550 178 15226 41980 69014 54276 43832 16472 35176 13420 54551 32778 35591 7011 5054 4441 1400 4378 23662 904 10217 11153 21641 37045 34386 4579 52588 58061 204 2252
internal_value=-2.33432e-06 0.00139769 -0.00176625 0.00216031 -0.00217701 0.000422905 7.33908e-05 0.00150153 -0.000469808 0.00325707 0.0020019 0.00386365 -8.96669e-05 -0.00270383 -0.00161429 0.000763515 0.00228414 0.00432553 0.000588305 0.00519511 -0.00281106 -0.00292774 0.00220753 -0.00311122 0.000502736 -0.00170715 -0.00178289 -0.00296315 2.50826e-05 0.00607662
internal_weight=807712 450305 357407 252647 271414 197658 143382 157839 85993 94808 94064 52828 70767 140179 131235 63775 77592 39408 59334 1082 133168 122951 76192 106259 58252 126181 121602 95106 34590 6630
internal_count=807712 450305 357407 252647 271414 197658 143382 157839 85993 94808 94064 52828 70767 140179 131235 63775 77592 39408 59334 1082 133168 122951 76192 106259 58252 126181 121602 95106 34590 6630
is_linear=0
shrinkage=0.05


Tree=10
num_leaves=31
num_cat=0
split_feature=4 4 4 5 5 1 5 2 1 1 2 2 2 5 4 3 4 3 5 2 1 4 5 1 3 3 1 2 2 5
split_gain=718.628 94.7066 78.8618 37.2492 24.8912 19.6443 20.8069 18.9189 18.2604 17.5899 17.3893 15.7831 13.0337 12.4015 12.2594 11.0705 10.7479 9.94914 9.06374 8.30212 7.93215 7.49266 7.01434 6.43646 8.76237 6.3154 6.31199 7.07794 6.13265 5.89483
threshold=-0.093165134456351439 -0.54821554403554607 0.79353633040045179 -0.17151637195048056 0.16435316971981803 1.5139772993274685 0.43980269177389658 -0.98913001837907222 1.5473762400771034 -1.1865705997451159 -1.2199691195191291 -0.25235695974020428 1.4705197192650437 0.43980269177389658 -1.0880521038512618 0.11758770633599282 0.20653996747439468 -1.7512086291510074 -0.70252705266427773 1.6820608844563434 -1.9806262705306763 -0.35570734517512886 1.4749788016775651 -1.4160940158569335 -0.096234920497022938 2.2446280664900251 0.34749379851325907 1.0563563297325789 0.63836045595820912 -1.0978965857971412
decision_type=2 2 2 2 2 2 2 2 2 2 2 2 2 2 2 2 2 2 2 2 2 2 2 2 2 2 2 2 2 2
left_child=1 3 5 8 19 6 16 20 14 -5 -8 23 13 25 29 -16 -2 -10 -17 21 -4 -3 -11 24 -6 -9 27 -20 -15 -1
right_child=2 4 7 9 11 -7 10 12 17 22 -12 -13 -14 28 15 18 -18 -19 26 -21 -22 -23 -24 -25 -26 -27 -28 -29 -30 -31
leaf_value=0.0003767766915976355 0.0001424454002532023 -0.0012774019260402033 0.00023307679290535734 -0.0035091835957699901 -0.0033421751576719291 0.0032676050179802443 -2.3970490415187776e-06 0.0020858157408331587 0.0065516734834784362 -0.00033348613506340076 0.0022011698309327469 0.0020628913884912408 0.0050681029834395977 0.0030149389655068411 -0.0017184866780434547 -0.0015560665491718018 0.00096327518823152508 -0.00085906815941135103 -0.0024696791364618546 0.0010913629298555309 0.0019047967104638898 -0.00054337196727407373 0.0028860883974370418 0.00023071666412166695 0.0042953836911041798 0.0068658087210995812 -0.0032565591576977347 0.00082062340522260236 0.0046122300979465885 -0.0031710545644214961
leaf_weight=1199 74331 63046 8576 4447 2708 8873 11414 53825 467 30233 41524 13373 5958 40673 67894 16947 86045 15000 23436 5595 41113 77503 1792 13400 436 700 38809 1757 7051 49794
leaf_count=1199 74331 63046 8576 4447 2708 8873 11414 53825 467 30233 41524 13373 5958 40673 67894 16947 86045 15000 23436 5595 41113 77503 1792 13400 436 700 38809 1757 7051 49794
internal_value=-1.25362e-05 -0.00141806 0.00156958 -0.00204014 -0.000528459 0.000962435 0.000866549 0.00242393 -0.00229045 -0.000562507 0.00172606 0.000785534 0.00279481 0.00266235 -0.00241856 -0.00218933 0.000582837 -0.000635313 -0.00258424 -0.000797445 0.00161627 -0.000872635 -0.000153331 -0.000246991 -0.00228302 0.00214718 -0.00285649 -0.00224021 0.00325093 -0.00308763
internal_weight=807919 427836 380083 251775 176061 222187 213314 157896 215303 36472 52938 29917 108207 102249 199836 148843 160376 15467 80949 146144 49689 140549 32025 16544 3144 54525 64002 25193 47724 50993
internal_count=807919 427836 380083 251775 176061 222187 213314 157896 215303 36472 52938 29917 108207 102249 199836 148843 160376 15467 80949 146144 49689 140549 32025 16544 3144 54525 64002 25193 47724 50993
is_linear=0
shrinkage=0.05


Tree=11
num_leaves=31
num_cat=0
split_feature=5 0 0 5 1 1 2 0 0 5 3 1 0 5 3 3 0 3 1 2 1 2 2 2 2 3 3 5 1 2
split_gain=382.707 134.482 57.5266 42.3176 35.1741 33.1388 30.6429 28.2212 26.0425 26.3506 12.5253 12.0723 11.9212 11.9056 11.447 14.5052 10.8903 9.82969 9.34197 9.24473 8.96984 8.90649 8.85851 8.14049 7.9029 10.234 7.59735 7.59285 8.50213 21.2358
threshold=-0.17151637195048056 0.868565343859795 1.1429397931838072 0.43980269177389658 0.11101222686479537 1.5139772993274685 -1.4179875378618181 1.5290330385702788 -2.6063092864002928 -0.63275532422727043 1.5009214228578207 1.2840554537336273 2.3260266183193097 -0.43196402200548689 0.1080499359107548 1.7771512612880345 -0.30408411637194438 -1.0144581410103941 -1.0699539925451644 1.6038378300277845 2.1042428129116719 1.6820608844563434 -0.47477928444176137 -1.680127939923008 -1.7138903516580239 -0.16126369270073532 0.5414269309221269 -0.74531523758095697 0.84590897247181995 0.76050165449786655
decision_type=2 2 2 2 2 2 2 2 2 2 2 2 2 2 2 2 2 2 2 2 2 2 2 2 2 2 2 2 2 2
left_child=1 4 3 11 8 14 -5 -3 9 -1 23 24 18 17 -6 21 19 -7 -4 -8 -19 27 -18 -10 -2 -26 -24 -16 -29 -30
right_child=2 7 12 6 5 13 16 -9 10 -11 -12 -13 -14 -15 15 -17 22 20 -20 -21 -22 -23 26 -25 25 -27 -28 28 29 -31
leaf_value=0.023437200843448372 -0.0012956176951867224 0.00075229102010866287 0.0013536479447065711 5.0227955025492498e-05 -0.0013451860302134331 0.0032041468897561114 0.0014601999166587245 0.0033837397753862298 -0.0022261105624682451 0.0026536872405801631 0.0023263774763296516 0.0023480479956773936 0.0049230372167330168 0.002092820722616589 -0.0013547180248195886 -0.0002269701007382894 0.0017969354814070162 -0.001391452616209823 0.0031828474636203989 0.0045108843404488303 0.0013190355079612873 7.8623370121226306e-05 0.0035991200046544825 -0.00075495885405631733 0.00088271235523187041 -1.2528562146019895e-05 0.0017534818976102453 -0.0021652061021927601 -0.0014692271102765709 -0.0039212821253126907
leaf_weight=213 7020 44861 9725 24252 65738 1622 63761 13183 9892 537 3198 7906 7051 5454 15527 9044 22213 15284 24729 2584 3814 3796 21600 190294 62780 64949 7516 59522 13205 26649
leaf_count=213 7020 44861 9725 24252 65738 1622 63761 13183 9892 537 3198 7906 7051 5454 15527 9044 22213 15284 24729 2584 3814 3796 21600 190294 62780 64949 7516 59522 13205 26649
internal_value=-1.19094e-05 -0.000907144 0.00131091 0.00105729 -0.00121629 -0.00165542 0.00166857 0.00134995 -0.000743766 0.00855621 -0.000778061 0.000449135 0.00304988 1.43352e-05 -0.0018813 -0.00215719 0.0020021 -0.000532772 0.00266654 0.00157902 -0.00085015 -0.00230426 0.00254896 -0.000827654 0.000337722 0.000427491 0.00312269 -0.00238298 -0.00254364 -0.00310883
internal_weight=807919 481833 326086 284581 423789 219655 141926 58044 204134 750 203384 142655 41505 26174 193481 127743 117674 20720 34454 66345 19098 118699 51329 200186 134749 127729 29116 114903 99376 39854
internal_count=807919 481833 326086 284581 423789 219655 141926 58044 204134 750 203384 142655 41505 26174 193481 127743 117674 20720 34454 66345 19098 118699 51329 200186 134749 127729 29116 114903 99376 39854
is_linear=0
shrinkage=0.05


Tree=12
num_leaves=31
num_cat=0
split_feature=4 0 4 5 4 5 5 1 0 4 1 1 0 1 1 0 0 0 4 5 3 1 3 1 3 3 3 3 5 4
split_gain=618.453 91.1969 76.0426 38.1566 37.4845 27.8983 21.614 16.5487 14.0278 13.7895 13.7751 13.7498 12.0314 11.4619 9.8211 9.4162 9.27425 9.23897 9.33766 8.82066 8.50329 8.39373 11.1262 8.29325 7.80775 7.67524 7.41121 7.02213 6.9467 6.72163
threshold=-0.11985602053863169 0.36059031100134858 -0.57874093580404773 0.10054120799523276 0.77502466925506808 -0.30749700596114105 0.076613822394160772 1.9073779855547202 1.0492297908763573 0.89273141889460794 -1.0287949003105747 1.6689911335173033 0.868565343859795 -1.5576299221282823 -1.8583560405187802 -0.64381911964887439 1.2853442697364932 -0.24102257164161997 0.58333731249267873 -0.72634385904677068 -0.31534732541691457 -1.4160940158569335 -0.096234920497022938 -0.1436570007630881 -1.6156430375713005 1.6206267379741741 2.2446280664900251 -0.19863709969338872 0.77570987152940385 -1.0880521038512618
decision_type=2 2 2 2 2 2 2 2 2 2 2 2 2 2 2 2 2 2 2 2 2 2 2 2 2 2 2 2 2 2
left_child=2 3 5 7 -3 11 8 9 -4 23 27 12 15 -6 -5 -1 26 28 -19 -10 -12 22 -8 -2 -13 -11 -15 -7 -16 -17
right_child=1 4 6 14 13 10 21 -9 19 25 20 24 -14 16 17 29 -18 18 -20 -21 -22 -23 -24 -25 -26 -27 -28 -29 -30 -31
leaf_value=-0.00093406086805950721 0.00031706788712639484 0.0016998248061754298 -0.0009743496423268973 -0.00010054473210027945 0.0016779386075014124 -0.0036807682729825576 -0.0029260209260946655 0.0046343474912893326 0.0049093646894462521 0.000986670947306943 0.0005691955149533523 0.0066669425035410738 -0.00068437785667064361 0.0029317322042702572 0.00076820540573618043 -0.0030062439465809911 0.0043354172595256027 0.0013868532402279291 0.0031537655744142178 0.00037494511901167926 -0.00098523772730615012 0.00084482630962223857 0.005002021513019617 -0.00061282477318171005 -0.0006777844266804868 0.0056633280354008789 0.0095123415031740741 -3.325999324337111e-05 0.0017077989272185725 -0.0022936888473672904
leaf_weight=10140 50312 78802 134101 9141 9013 5813 2971 2099 1198 26816 12425 376 10730 30218 33028 47120 24126 13692 16474 10238 30139 30117 520 45808 9607 907 434 1707 48644 111203
leaf_count=10140 50312 78802 134101 9141 9013 5813 2971 2099 1198 26816 12425 376 10730 30218 33028 47120 24126 13692 16474 10238 30139 30117 520 45808 9607 907 434 1707 48644 111203
internal_value=-1.13139e-05 0.00142245 -0.00134607 0.000841055 0.00242921 -0.00192934 -0.000567081 0.000231875 -0.000830999 0.000157258 -0.00088002 -0.00220714 -0.00230776 0.00333023 0.00147523 -0.00241116 0.0036021 0.00160402 0.00235178 0.000849957 -0.000531478 0.0005758 -0.0017451 -0.000126092 -0.000401152 0.00113967 0.00302491 -0.0028528 0.00132783 -0.00250576
internal_weight=807919 389514 418405 246921 142593 239260 179145 125942 145537 123843 50084 189176 179193 63791 120979 168463 54778 111838 30166 11436 42564 33608 3491 96120 9983 27723 30652 7520 81672 158323
internal_count=807919 389514 418405 246921 142593 239260 179145 125942 145537 123843 50084 189176 179193 63791 120979 168463 54778 111838 30166 11436 42564 33608 3491 96120 9983 27723 30652 7520 81672 158323
is_linear=0
shrinkage=0.05


Tree=13
num_leaves=31
num_cat=0
split_feature=4 4 5 4 2 1 1 1 5 2 4 1 5 1 5 2 5 4 3 3 3 2 3 3 3 1 1 2 3 2
split_gain=559.209 87.3895 51.2484 27.1545 21.015 16.762 16.4909 16.2292 14.7513 20.404 12.3539 14.0631 10.8024 8.64858 9.06864 8.5293 7.76477 7.46654 7.39679 7.14031 8.534 6.91242 7.75354 6.404 7.09271 6.40114 6.07579 6.06832 5.85756 5.63203
threshold=-0.24919681169662036 0.49067985372761963 -0.17151637195048056 -0.84650265086771925 1.2694420017781671 1.8354838904526212 -1.2666908428599231 1.425728419804972 0.054151946148668507 -1.1727803043678238 0.95637077967366546 -1.2513456293320935 -0.97183756815361477 0.11101222686479537 -0.73876452492185318 -0.98913001837907222 0.16435316971981803 0.038369315382664755 -0.096234920497022938 0.053623738220618958 1.6668201707614847 -0.30952621622596915 0.019030879774804454 1.6668201707614847 -0.24688371342160872 1.5473762400771034 0.18852480714198036 -2.1881816625954618 -1.7023351049471909 0.58873461015513773
decision_type=2 2 2 2 2 2 2 2 2 2 2 2 2 2 2 2 2 2 2 2 2 2 2 2 2 2 2 2 2 2
left_child=2 5 3 15 10 8 18 13 17 -10 -3 27 -9 -5 -15 -1 -8 -2 -4 25 26 22 -18 24 -16 -17 29 -12 -14 -21
right_child=1 4 6 7 -6 -7 16 12 9 -11 11 -13 28 14 23 19 21 -19 -20 20 -22 -23 -24 -25 -26 -27 -28 -29 -30 -31
leaf_value=-0.0035618436393320971 -0.00019794723754726985 0.0012956632445793408 -0.0030520965737735419 -0.0011112923041189735 0.0038947015874686306 0.0034407356139589612 -0.00050258143626674408 0.0074432943965874465 -0.00070432175744528471 0.0014482328710141523 -0.0004727044635095162 0.0024326166461893055 0.0050126976539603381 -0.00046987735461231824 -0.0010874643876736141 -0.0017808850432535776 0.00050426124146138408 0.00051402891525225596 0.0012554074272196345 -0.0022219889480964848 -0.00082839283753044144 0.0012901857366175655 -0.002175022943926257 -0.0001996882494758941 -0.0023964495365633729 0.0011124410319997492 -0.0029746321219003809 0.0015041144769237971 -0.00018871792387516477 0.00044237569558854196
leaf_weight=12172 74187 77053 6565 82453 12648 4757 31451 510 13635 57162 4438 89917 565 10639 12716 37959 9986 73116 1175 14610 7041 16963 3701 4472 55586 2013 44250 30997 12887 2295
leaf_count=12172 74187 77053 6565 82453 12648 4757 31451 510 13635 57162 4438 89917 565 10639 12716 37959 9986 73116 1175 14610 7041 16963 3701 4472 55586 2013 44250 30997 12887 2295
internal_value=-1.07482e-05 0.00119842 -0.00144181 -0.00172566 0.00191745 0.000504569 -0.000221895 -0.00133662 0.000440528 0.00103367 0.0017939 0.00210016 0.000300548 -0.00147444 -0.0018334 -0.002307 4.93474e-05 0.000155453 -0.00239818 -0.00216579 -0.0024768 0.0006157 -0.000220224 -0.00203273 -0.00215275 -0.00163518 -0.00266659 0.00125653 2.97477e-05 -0.00186028
internal_weight=807919 437910 370009 300168 215053 222857 69841 179828 218100 70797 202405 125352 13962 165866 83413 120340 62101 147303 7740 108168 68196 30650 13687 72774 68302 39972 61155 35435 13452 16905
internal_count=807919 437910 370009 300168 215053 222857 69841 179828 218100 70797 202405 125352 13962 165866 83413 120340 62101 147303 7740 108168 68196 30650 13687 72774 68302 39972 61155 35435 13452 16905
is_linear=0
shrinkage=0.05


Tree=14
num_leaves=31
num_cat=0
split_feature=4 0 4 5 4 5 2 5 1 1 1 0 2 4 1 4 2 1 2 0 0 2 4 0 5 1 0 1 2 1
split_gain=505.242 80.2019 68.6655 31.7183 29.2082 24.252 16.2495 15.925 13.5775 13.445 12.9941 12.9115 12.6034 9.91999 9.69919 9.11235 8.84338 8.39931 8.36234 8.30918 8.06225 7.84291 10.1073 7.37713 7.5262 6.83299 6.38465 6.31234 7.37553 6.21052
threshold=-0.093165134456351439 0.36059031100134858 -0.54821554403554607 0.10054120799523276 0.77502466925506808 -0.17151637195048056 -1.4179875378618181 0.16435316971981803 -1.1865705997451159 1.425728419804972 1.6249077947469861 0.44393176408317853 -0.25235695974020428 0.89273141889460794 -1.5576299221282823 -1.1012649475328571 1.6410208316260395 0.011192152331798802 -1.3730686084370023 1.2853442697364932 -0.24102257164161997 0.4710734829503162 2.9328138358852307 -0.94221886298850932 -0.47964249249000207 1.4534944815745376 1.8594598440323169 0.94836571667912095 0.88020585891945746 1.0773601206823671
decision_type=2 2 2 2 2 2 2 2 2 2 2 2 2 2 2 2 2 2 2 2 2 2 2 2 2 2 2 2 2 2
left_child=2 3 5 10 18 9 -5 11 -7 15 13 -4 -9 17 -6 -1 20 -2 -3 -16 -8 -21 -23 -17 -25 -13 -20 -26 -29 -28
right_child=1 4 7 6 14 8 16 12 -10 -11 -12 25 -14 -15 19 23 -18 -19 26 21 -22 22 -24 24 27 -27 29 28 -30 -31
leaf_value=-0.0026567160980157374 0.000248998360864664 -8.7591486833944789e-05 -0.00095402846177826081 1.8384959980724107e-05 0.001538434109670082 -0.003115007366414603 0.001236385889448326 -0.00030289974232065555 -0.00016664013145585997 -0.00072014611142728511 0.003120698049753629 -9.7661108951346059e-05 0.0017612377257280429 0.00093511797552353431 0.0027621244118405156 0.00020258664562610156 0.0041413656743533233 -0.00073309657774336392 0.0016327593765458411 0.0034606569413305499 0.002268519925438528 0.0049330151158637724 0.012433806907983474 -0.0016392453697396748 -0.0021446382716183324 0.0023742974072605404 0.002703932438538476 -0.001636504180068605 -0.0046514657343626848 0.0074361111508731981
leaf_weight=46989 53517 6648 102307 19402 9013 4447 70696 16544 32025 21051 3678 40836 13373 27442 30652 4223 3309 36701 63922 17722 25834 5918 486 89962 44140 3001 4317 3112 5826 826
leaf_count=46989 53517 6648 102307 19402 9013 4447 70696 16544 32025 21051 3678 40836 13373 27442 30652 4223 3309 36701 63922 17722 25834 5918 486 89962 44140 3001 4317 3112 5826 826
internal_value=-1.02108e-05 0.00131637 -0.00118873 0.000763295 0.00227018 -0.00171842 0.00134243 -0.000431241 -0.000526132 -0.0019204 0.000194166 -0.000646394 0.000619777 0.000102684 0.00305837 -0.00205047 0.00159974 -0.000150521 0.00160609 0.00330846 0.00151261 0.00400258 0.00550225 -0.00185702 -0.00191783 7.15646e-05 0.00176912 -0.00239 -0.00360173 0.00346395
internal_weight=807919 380083 427836 240579 139504 251775 119241 176061 36472 215303 121338 146144 29917 117660 63791 194252 99839 90218 75713 54778 96530 24126 6404 147263 143040 43837 69065 53078 8938 5143
internal_count=807919 380083 427836 240579 139504 251775 119241 176061 36472 215303 121338 146144 29917 117660 63791 194252 99839 90218 75713 54778 96530 24126 6404 147263 143040 43837 69065 53078 8938 5143
is_linear=0
shrinkage=0.05


Tree=15
num_leaves=31
num_cat=0
split_feature=4 4 5 4 2 1 4 2 2 5 1 1 3 2 1 2 2 3 1 3 2 5 1 4 4 5 2 3 4 3
split_gain=465.479 77.0762 39.0197 19.5502 19.0379 18.3262 15.9296 15.9076 12.6302 12.6195 10.963 9.27764 9.00737 7.47296 7.43487 7.0228 6.82986 6.54339 9.28568 6.38867 6.33016 6.22969 5.76626 5.74274 5.66355 5.46253 5.42796 7.53213 5.71892 5.39436
threshold=-0.28234577193171945 0.3386671976915106 -0.16394149527913479 -0.76149023329396492 0.79961737448177594 1.7173530212035557 0.93455483581064003 -1.0831596191622528 -1.4420475941815811 0.66499189590112817 1.7711294326309861 1.6689911335173033 -2.4011902458976486 -1.1270982321612126 -0.087931048116610525 2.2664847035897284 2.0314480535585884 -0.36593240790266535 -1.0154379920320158 -0.28650912324135636 -1.7138903516580239 -0.69685783283843339 -1.1123167270818219 0.038369315382664755 -0.52415388026190224 -0.92631564584649684 -1.1877381718522118 0.1080499359107548 -1.1606647856261649 -1.8646519855904271
decision_type=2 2 2 2 2 2 2 2 2 2 2 2 2 2 2 2 2 2 2 2 2 2 2 2 2 2 2 2 2 2
left_child=2 5 3 11 6 9 14 -4 29 12 21 26 22 -11 20 17 25 18 -9 -13 -3 -5 -2 -14 -23 -6 28 -28 -1 -8
right_child=1 4 7 10 16 -7 8 15 -10 13 -12 19 23 -15 -16 -17 -18 -19 -20 -21 -22 24 -24 -25 -26 -27 27 -29 -30 -31
leaf_value=-0.0049095715663247282 -0.0024333760142326356 -0.00023062890672182853 -0.0018441129009561992 -0.00053062801512477969 -0.0050196865731376716 0.0031638427741291979 -0.00094671928632565855 -0.0016005900948155823 0.002122560237156935 -0.00018536817715716805 0.0012190201745267018 0.003118569057619603 -0.00016847579434921614 0.0017540343093256144 0.00034890196255047513 0.0052067102798644231 0.0050413816356002089 -0.00027586596303438214 0.0015454359415749367 -0.00090941619854398737 0.0014593030620623549 -0.0017428369526584419 0.0053935083787506211 0.00042972267562739442 -0.0010435375873716572 0.0026174769576686667 -0.0015450382521735564 -0.0023175297840335052 -0.0023608786950654382 0.0011484899695262017
leaf_weight=3298 290 6093 12240 24894 236 5627 3695 2887 98359 6586 4651 1149 99117 20206 29023 680 3049 36116 12504 6872 61206 59476 1248 67405 56419 29660 54188 75550 6617 18221
leaf_count=3298 290 6093 12240 24894 236 5627 3695 2887 98359 6586 4651 1149 99117 20206 29023 680 3049 36116 12504 6872 61206 59476 1248 67405 56419 29660 54188 75550 6617 18221
internal_value=1.08007e-05 0.00108079 -0.00133595 -0.00158083 0.0016673 0.000350741 0.00149698 -0.000221822 0.0018807 0.000269503 -0.00116936 -0.00198608 0.000108842 0.00127729 0.00101783 0.000158672 0.0027871 9.20273e-05 0.000955313 -0.000332411 0.0013063 -0.00124826 0.0039177 7.36638e-05 -0.00140241 0.00255719 -0.00208106 -0.00199488 -0.00320864 0.000795241
internal_weight=807562 450021 357541 293114 249542 200479 216597 64427 120275 194852 145440 147674 168060 26792 96322 52187 32945 51507 15391 8021 67299 140789 1538 166522 115895 29896 139653 129738 9915 21916
internal_count=807562 450021 357541 293114 249542 200479 216597 64427 120275 194852 145440 147674 168060 26792 96322 52187 32945 51507 15391 8021 67299 140789 1538 166522 115895 29896 139653 129738 9915 21916
is_linear=0
shrinkage=0.05


Tree=16
num_leaves=31
num_cat=0
split_feature=5 0 0 5 0 5 0 1 1 2 1 0 0 0 3 2 2 5 0 5 0 1 5 0 5 1 2 3 2 5
split_gain=242.282 89.5474 39.4027 32.1308 21.7484 26.9192 22.0289 20.353 20.3805 20.1337 14.8652 10.8485 10.7576 10.1405 9.58378 7.79879 7.40015 6.57809 6.42115 6.18651 6.07844 5.87208 5.8138 9.79273 7.06559 5.65475 5.4201 5.91818 8.15924 5.295
threshold=-0.21858581275977138 1.0280387335819581 0.90009816785872598 0.33167458146436946 -2.6063092864002928 -0.63275532422727043 0.4792210424115057 0.11101222686479537 1.6689911335173033 -1.2199691195191291 1.3039394582779418 1.7781825949853989 -0.22385283244614754 2.4385276987182132 -0.64945522559670699 1.186564402733385 0.42367170033546703 1.2613556705071856 -0.64381911964887439 -0.61121001202577163 -0.4019771764703271 -1.8583560405187802 -0.70838712857010655 -1.059175059471021 -0.85069981457392596 0.48860644253952457 1.4417150907930196 -0.17016386407179399 -1.680127939923008 1.4749788016775651
decision_type=2 2 2 2 2 2 2 2 2 2 2 2 2 2 2 2 2 2 2 2 2 2 2 2 2 2 2 2 2 2
left_child=1 4 3 10 5 -1 7 15 14 -5 26 19 29 16 25 22 -4 -14 -16 -3 -10 -19 23 24 -6 -9 27 28 -2 -11
right_child=2 11 13 9 6 -7 -8 8 20 12 -12 -13 17 -15 18 -17 -18 21 -20 -21 -22 -23 -24 -25 -26 -27 -28 -29 -30 -31
leaf_value=0.021713509465929724 -0.0013762540061976877 0.0023916555659786671 0.0016551138458921915 0.00019603287397174983 0.010463758603760483 0.0015906059616568064 -0.00025960588885721558 -0.0019174088075517969 0.0022922619178308459 0.00086181136265806458 0.0023835145818591839 0.003414721735584941 0.0017503050325257587 0.0043503413576372486 -0.0009203668787123294 0.0015494563141396187 0.003020171901804208 -0.0029575435159947343 -0.0019429843559234435 0.00077700529846161978 -0.00023821507825135809 0.0031889670423766569 -0.00064876134807338205 -0.0015901862285381818 0.00061949167197909195 -7.1279577210418185e-06 0.0018786063848828978 -0.00031770356706829631 0.00055311010406230933 0.0017472337010298049
leaf_weight=229 6062 8046 42594 34051 277 606 87042 5610 3043 44443 7429 6756 29548 4881 17481 3628 12946 399 125962 22583 10781 14872 125889 28165 533 12519 4075 62829 57052 27231
leaf_count=229 6062 8046 42594 34051 277 606 87042 5610 3043 44443 7429 6756 29548 4881 17481 3628 12946 399 125962 22583 10781 14872 125889 28165 533 12519 4075 62829 57052 27231
internal_value=1.02607e-05 -0.000744156 0.00100446 0.000760907 -0.000952046 0.00710934 -0.000968037 -0.00115272 -0.00152381 0.00126554 0.000208187 0.00160118 0.00157816 0.00216532 -0.00168146 -0.000742053 0.0019733 0.00218578 -0.00181836 0.00120116 0.000318805 0.00302837 -0.000795736 -0.0014343 0.00398599 -0.000598262 8.38923e-05 2.58227e-05 0.000367798 0.00119821
internal_weight=807562 459150 348412 287991 421765 835 420930 333888 175396 150544 137447 37385 116493 60421 161572 158492 55540 44819 143443 30629 13824 15271 154864 28975 810 18129 130018 125943 63114 71674
internal_count=807562 459150 348412 287991 421765 835 420930 333888 175396 150544 137447 37385 116493 60421 161572 158492 55540 44819 143443 30629 13824 15271 154864 28975 810 18129 130018 125943 63114 71674
is_linear=0
shrinkage=0.05


Tree=17
num_leaves=31
num_cat=0
split_feature=5 0 0 5 0 5 0 2 3 3 1 0 0 0 0 1 1 2 2 1 1 2 2 2 1 5 1 3 1 3
split_gain=218.755 81.1771 35.4866 29.4452 20.3682 23.7219 19.7426 18.9418 18.3623 13.4637 11.8574 11.6474 10.1544 9.67533 9.59058 8.28343 7.93128 7.56775 7.38854 7.37919 6.69893 6.74143 6.56797 6.34639 6.08721 6.7624 5.83254 5.47186 5.29139 5.26737
threshold=-0.22510811723767077 1.0280387335819581 0.90009816785872598 0.43980269177389658 -2.6063092864002928 -0.63275532422727043 0.4792210424115057 -1.2378991961882808 0.27111354258742115 1.6668201707614847 1.2621636892376686 -0.57573420027029731 -0.4121248411875113 1.7781825949853989 2.4385276987182132 0.40583378858653302 1.6249077947469861 1.147063513012428 0.6255133342222271 -1.0699539925451644 0.12209133031057078 -1.6469252058997979 1.2485818556690123 -0.46298089651861235 -1.8583560405187802 1.2127450349208979 1.425728419804972 -2.6483481995673297 0.40583378858653302 0.50573857841030934
decision_type=2 2 2 2 2 2 2 2 2 2 2 2 2 2 2 2 2 2 2 2 2 2 2 2 2 2 2 2 2 2
left_child=1 4 3 10 5 -1 8 -5 11 15 27 18 -9 26 19 22 -17 20 23 -4 21 -13 -10 -6 -14 -26 -3 -2 -22 -27
right_child=2 13 14 7 6 -7 -8 12 9 -11 -12 17 24 -15 -16 16 -18 -19 -20 -21 28 -23 -24 -25 25 29 -28 -29 -30 -31
leaf_value=0.020627833954892306 0.0037604229898699003 0.00093779428129829557 0.0009103742655114076 0.00016166935070245679 0.00039728482713927192 0.0016586361681016123 -0.00025371754822557045 0.0011307204828928635 -0.0013433819140636208 -8.7703135978717392e-05 0.0020007831131918694 -0.0023257658420753839 -0.0020541455201117829 0.0032567185639718298 0.0041648913345166613 -0.0022060039271673201 -0.00040359042416320879 0.00027418174762692502 0.0017760686149382522 0.0022054847666304672 -0.0023272911418430239 -0.0006985270145495405 0.0013765067697805616 -0.0010312431658650266 0.0016943187896773931 0.0033028592407585815 0.0033874461421737447 0.00011374909227632063 -0.0011987430691617518 0.0010929706953637611
leaf_weight=229 1036 27652 15029 30546 16763 588 86419 57416 52271 14518 9087 6877 857 6668 4900 66719 6718 11301 5165 41012 14946 85469 2318 14500 27267 15714 2664 145611 34047 3255
leaf_count=229 1036 27652 15029 30546 16763 588 86419 57416 52271 14518 9087 6877 857 6668 4900 66719 6718 11301 5165 41012 14946 85469 2318 14500 27267 15714 2664 145611 34047 3255
internal_value=9.74763e-06 -0.000713128 0.000946574 0.000716661 -0.000911401 0.00697558 -0.000926815 0.00125695 -0.00110223 -0.00153073 0.000248116 -0.000779166 0.00157708 0.00153233 0.00204364 -0.00169437 -0.00204112 -0.000970882 2.41587e-05 0.00185816 -0.00107043 -0.000819707 -0.00122789 -0.000265277 0.00212128 0.00219867 0.00115306 0.000139511 -0.00154302 0.00292365
internal_weight=807562 455832 351730 290789 418848 817 418031 135055 331612 142544 155734 189068 104509 36984 60941 128026 73437 152640 36428 56041 141339 92346 54589 31263 47093 46236 30316 146647 48993 18969
internal_count=807562 455832 351730 290789 418848 817 418031 135055 331612 142544 155734 189068 104509 36984 60941 128026 73437 152640 36428 56041 141339 92346 54589 31263 47093 46236 30316 146647 48993 18969
is_linear=0
shrinkage=0.05


Tree=18
num_leaves=31
num_cat=0
split_feature=4 4 5 1 2 4 2 4 1 2 5 2 2 1 3 5 3 2 1 5 2 3 2 1 5 3 2 2 1 1
split_gain=382.926 68.1057 23.4365 16.741 16.4581 15.0554 14.1636 12.708 11.2198 10.655 10.3008 10.3089 7.55137 7.22676 7.01293 7.08169 8.14863 6.75308 6.45308 6.32493 6.27616 6.6916 5.85429 5.6254 5.5528 5.79747 5.48543 5.23454 5.14594 5.08892
threshold=-0.32400165097539163 0.3386671976915106 -0.084818514330621639 1.4534944815745376 0.79961737448177594 -0.84650265086771925 -0.30952621622596915 0.93455483581064003 1.5855608766766751 -0.98913001837907222 0.11300613643040332 -1.0432586566352169 -1.0567508504165055 -0.2666424812364645 -1.0458985787256461 -0.57415048235383404 1.5771090237418444 -1.7506543887318882 1.0000000180025095e-35 -0.73231408233540141 2.0314480535585884 0.036144815227608255 2.0314480535585884 -0.41040284401344707 -0.31191295311458461 1.7771512612880345 -1.310957932870521 -1.7138903516580239 1.1257703008756568 -2.1685471741058122
decision_type=2 2 2 2 2 2 2 2 2 2 2 2 2 2 2 2 2 2 2 2 2 2 2 2 2 2 2 2 2 2
left_child=2 3 5 10 7 12 17 18 19 29 13 -12 -1 -2 -15 16 -16 -4 27 -7 21 -14 -6 26 25 -25 -21 -3 -20 -9
right_child=1 4 6 -5 22 8 -8 9 -10 -11 11 -13 20 14 15 -17 -18 -19 28 23 -22 -23 -24 24 -26 -27 -28 -29 -30 -31
leaf_value=-0.0030867404566185808 0.00036349216234181564 -0.00023270578570505098 -0.0034629213751903526 0.002198439957476944 0.0023323770879638494 -0.00043154727208750206 0.0005564502316593975 -0.00047057086966956576 0.00062613759984280252 0.0020419107483626883 -0.00041566213811537641 0.0011585248567505075 -0.0012756685328734513 0.0014240239588427842 0.00016196428392872668 -0.00071172683950202615 0.0047691734334028039 -0.00083023284681181812 2.1691871999429304e-06 -0.0022089954166417498 0.00077889653326742669 -0.002084457653047567 0.0046323169739999398 -0.0018053654572622712 -0.00074768080466845646 0.00032284564117519122 -0.00056290971072802244 0.0013002823448693796 0.0022662451899310172 0.0012532541360452999
leaf_weight=11283 66482 6098 2746 10938 29896 21849 25668 4816 8661 76895 13809 42131 40571 5302 16500 60457 1019 21563 23277 6026 2439 69185 3049 78489 17958 3336 31608 64134 2813 38564
leaf_count=11283 66482 6098 2746 10938 29896 21849 25668 4816 8661 76895 13809 42131 40571 5302 16500 60457 1019 21563 23277 6026 2439 69185 3049 78489 17958 3336 31608 64134 2813 38564
internal_value=9.26025e-06 0.000940976 -0.00126306 0.000292357 0.00150407 -0.00143463 -0.000262691 0.0013457 -0.00112645 0.00168844 0.000191002 0.000769931 -0.00185374 -2.52458e-05 -0.000335581 -0.000455226 0.000429945 -0.00112763 0.000917742 -0.00122175 -0.00172974 -0.00178549 0.00254523 -0.0013474 -0.00154386 -0.0017186 -0.000826483 0.00116718 0.00024628 0.00106188
internal_weight=807562 466180 341382 216638 249542 291405 49977 216597 167927 120275 205700 55940 123478 149760 83278 77976 17519 24309 96322 159266 112195 109756 32945 137417 99783 81825 37634 70232 26090 43380
internal_count=807562 466180 341382 216638 249542 291405 49977 216597 167927 120275 205700 55940 123478 149760 83278 77976 17519 24309 96322 159266 112195 109756 32945 137417 99783 81825 37634 70232 26090 43380
is_linear=0
shrinkage=0.05


Tree=19
num_leaves=31
num_cat=0
split_feature=4 0 5 4 5 4 1 0 4 1 4 5 3 3 0 0 1 1 4 5 1 0 4 1 3 3 3 5 1 1
split_gain=345.591 65.0862 33.693 29.0489 21.2251 16.4436 12.9498 12.7516 11.0464 10.9842 9.65283 9.1704 8.78492 8.33513 8.2037 7.08439 6.60071 6.34202 6.3116 6.28174 5.96473 5.76749 5.72047 5.61856 5.83671 5.61315 5.33823 5.3121 4.96064 5.83094
threshold=-0.32400165097539163 0.4792210424115057 0.33167458146436946 0.35189923156119179 -0.29779541222733436 0.20653996747439468 -0.90157766349996804 0.78364212877048722 -0.8117189082449906 -1.5576299221282823 1.2610497416414346 -0.68664219474120791 1.6206267379741741 -0.20814155459391137 -0.47814649384423064 -0.30408411637194438 1.3743400877355672 -2.1685471741058122 0.46075514737308415 -0.46070221874199518 1.8354838904526212 0.13097907549080987 0.89273141889460794 1.6689911335173033 -0.28650912324135636 1.4315472770128419 -2.4011902458976486 -1.0978965857971412 1.7711294326309861 0.17716346705068267
decision_type=2 2 2 2 2 2 2 2 2 2 2 2 2 2 2 2 2 2 2 2 2 2 2 2 2 2 2 2 2 2
left_child=4 2 5 11 7 26 -6 8 14 -5 -11 25 21 -8 -1 -4 -13 -17 -19 -10 -15 -7 -14 27 -25 -3 -2 -16 29 -28
right_child=1 3 15 9 6 12 13 -9 19 10 -12 16 22 20 23 17 -18 18 -20 -21 -22 -23 -24 24 -26 -27 28 -29 -30 -31
leaf_value=-0.00054879497471983763 0.00306231338297137 0.0024269029830701477 0.00090984308583879096 0.00082819590574472141 -0.0017285917640077826 0.0002863306959769293 0.00058632010857025628 -0.00036471604058408666 -0.00094442383751492081 0.0020992649778733504 0.0032527911533795834 0.000618627631098456 0.0013817075374952662 -0.00070088175836596246 0.0007653070264790632 -0.0014270058743893468 0.0028849457471508072 0.0011000032529126032 0.0024542072534509038 -0.0017332466630328503 0.0025000294316733186 0.0012433017322157004 0.0056134471436962491 0.0034798494886748399 -0.0011403673858178805 0.0081330528364905834 -0.00012350469563277686 -0.0021572263188444469 0.0018449908155520629 -0.00090647362374559606
leaf_weight=10386 1148 4749 76857 10253 17426 77632 22485 25473 78481 44149 30780 53282 1968 43320 1580 1504 3419 14784 20584 37202 1506 19750 1344 790 5074 474 62733 97659 2476 38294
leaf_count=10386 1148 4749 76857 10253 17426 77632 22485 25473 78481 44149 30780 53282 1968 43320 1580 1504 3419 14784 20584 37202 1506 19750 1344 790 5074 474 62733 97659 2476 38294
internal_value=8.79724e-06 0.000893927 0.000492776 0.00176402 -0.00119991 0.000110403 -0.00051378 -0.00142645 -0.00154344 0.00236309 0.00257312 0.000939955 0.000566541 -0.00019928 -0.00188936 0.00118318 0.000755284 0.00175292 0.00188814 -0.0011981 -0.000593342 0.000480414 0.00309894 -0.00202183 -0.00051793 0.00294475 -0.000328488 -0.0021107 -0.000366097 -0.000420287
internal_weight=807562 466180 319074 147106 341382 205345 84737 256645 231172 85182 74929 61924 100694 67311 115489 113729 56701 36872 35368 115683 44826 97382 3312 105103 5864 5223 104651 99239 103503 101027
internal_count=807562 466180 319074 147106 341382 205345 84737 256645 231172 85182 74929 61924 100694 67311 115489 113729 56701 36872 35368 115683 44826 97382 3312 105103 5864 5223 104651 99239 103503 101027
is_linear=0
shrinkage=0.05


Tree=20
num_leaves=31
num_cat=0
split_feature=4 0 4 5 4 5 2 2 2 0 0 0 5 5 2 2 2 5 0 3 0 4 2 0 4 2 0 4 4 3
split_gain=319.457 57.9836 37.6529 23.0806 21.5079 15.1545 9.70705 9.35296 9.27049 9.11316 10.1669 8.82136 11.8756 8.44522 8.09983 7.95708 6.99078 8.42918 8.42026 6.55185 6.30889 6.24777 6.18675 6.39628 7.19975 6.06947 7.38019 6.86688 6.91944 5.62664
threshold=-0.15453906607919896 0.40153374156802873 -0.52415388026190224 0.065077810428505703 0.43240621332559898 -0.010728051577254849 1.2485818556690123 -0.46298089651861235 -1.310957932870521 0.81088878960888866 -0.56308612467014107 -2.9408486418307507 -0.4536035223615244 -0.68664219474120791 1.7259654208192361 1.6410208316260395 -1.7138903516580239 0.11300613643040332 0.13818852908895513 2.7947375044551843 1.581591020859471 -1.1012649475328571 0.89453965228678911 2.3260266183193097 1.6910476281654196 -1.0432586566352169 -0.29439015052622913 1.8975092495409174 0.59998576008422422 0.57586010280944488
decision_type=2 2 2 2 2 2 2 2 2 2 2 2 2 2 2 2 2 2 2 2 2 2 2 2 2 2 2 2 2 2
left_child=2 3 5 6 13 8 11 -7 -1 10 -10 12 -2 -3 21 25 -4 18 -18 -13 -20 -12 23 -6 -25 27 -27 28 29 -5
right_child=1 4 16 15 22 7 -8 -9 9 -11 14 19 -14 -15 -16 -17 17 -19 20 -21 -22 -23 -24 24 -26 26 -28 -29 -30 -31
leaf_value=-0.0028181108742074816 0.016888554324937421 0.0032786586141489459 -0.0024455356117217774 -1.2890657598548848e-05 0.00199594885373456 -0.0013044667652428918 0.0015435986431365499 0.00058646296696236548 -0.00045101120255473998 -0.0003297459060568476 -0.0022102097076700474 -9.4589811188871837e-05 0.001934516330047981 0.00087764568738462907 -0.0001344253188264732 0.0033287346186649694 -0.00087473393090908153 0.00055832024143515708 -0.00012356714348272336 0.0088736224116063595 0.0027980790519259694 -0.0015238430372833541 0.0034476200378942439 0.0018162406433490036 0.0049807878324381258 0.000873676751245139 0.0018601909551274585 -0.00099279746082093991 0.0013815438755585662 -0.0086817772843335809
leaf_weight=12362 172 3939 3875 12617 67299 11484 10440 15188 20540 17907 44412 119903 582 52149 8696 3632 60903 24099 53362 204 1914 130810 10441 3266 3997 60758 27557 6975 17853 190
leaf_count=12362 172 3939 3875 12617 67299 11484 10440 15188 20540 17907 44412 119903 582 52149 8696 3632 60903 24099 53362 204 1914 130810 10441 3266 3997 60758 27557 6975 17853 190
internal_value=-9.23108e-06 0.000989669 -0.000999319 0.000548048 0.00180625 -0.00135709 8.0841e-05 -0.000227703 -0.00148542 -0.00141133 -0.00150606 -4.55123e-05 0.00534578 0.00104627 -0.00162389 0.00102145 -0.000350556 -0.000292685 -0.000469209 -7.93574e-05 -2.24015e-05 -0.00169781 0.00230771 0.00214808 0.00355777 0.000954918 0.0011815 0.000423217 0.000745353 -0.000141499
internal_weight=807526 401974 405552 260883 141091 261399 131301 26672 234727 222365 204458 120861 754 56088 183918 129582 144153 140278 116179 120107 55276 175222 85003 74562 7263 125950 88315 37635 30660 12807
internal_count=807526 401974 405552 260883 141091 261399 131301 26672 234727 222365 204458 120861 754 56088 183918 129582 144153 140278 116179 120107 55276 175222 85003 74562 7263 125950 88315 37635 30660 12807
is_linear=0
shrinkage=0.05


Tree=21
num_leaves=31
num_cat=0
split_feature=4 0 4 4 4 1 0 1 4 3 1 2 2 3 2 2 2 1 1 4 1 1 1 2 3 3 1 0 4 1
split_gain=288.31 52.4386 33.9817 20.7493 13.4002 12.3692 10.274 9.05686 8.49019 7.53043 9.049 7.27658 6.30918 7.98903 7.41202 6.22446 6.06863 6.3751 6.48178 5.67928 6.28274 5.64404 5.25112 4.76922 4.73418 4.47044 5.28979 4.36431 6.34114 5.93946
threshold=-0.15453906607919896 0.35304371805194418 -0.52415388026190224 0.47627989013670574 0.55070110729811128 1.7711294326309861 -1.0339891395451224 -1.5058878803216931 -1.144072503144083 -2.4011902458976486 -1.2513456293320935 1.8843663245419404 -1.7138903516580239 -0.040956443963304147 2.2664847035897284 -1.1877381718522118 1.4705197192650437 -0.13233032732745978 1.6689911335173033 1.6910476281654196 0.17716346705068267 1.4836237190500783 1.0773601206823671 -1.2929756931668386 1.6668201707614847 2.2446280664900251 0.41743363636071507 1.2853442697364932 2.9328138358852307 2.1042428129116719
decision_type=2 2 2 2 2 2 2 2 2 2 2 2 2 2 2 2 2 2 2 2 2 2 2 2 2 2 2 2 2 2
left_child=2 4 5 21 9 6 -1 -5 15 10 -2 -6 -4 22 24 -8 17 23 -19 25 -21 -3 -14 -11 -15 -9 -27 -22 29 -29
right_child=1 3 12 7 11 -7 8 19 -10 16 -12 -13 13 14 -16 -17 -18 18 -20 20 27 -23 -24 -25 -26 26 -28 28 -30 -31
leaf_value=0.00058018244438691284 -0.0045584408657534138 0.00089415724147433621 -0.0023232588073899669 0.00091785199221206329 0.00083028099309946895 0.00047463767841341608 -0.0039576748600795835 0.0020794240518640056 -0.0012683553433990022 -0.00050760169031231533 0.0052315880652712863 0.0039674201995118473 2.5521511990701996e-05 -0.00075693345274895118 0.0045760008152465372 -0.0018480618757890359 0.0015982644455719713 -0.00049039552933599249 0.00270649749983646 0.0025992423477333637 0.0030030767996442795 0.0030624494678274522 0.00182669423699953 0.00053943699288029449 0.00076509227721743248 0.012220214498348725 0.0030821858680978118 0.0052881154224592164 0.010608226317426432 -0.0069941170730637124
leaf_weight=6668 286 60080 3875 11865 121374 9575 3816 51974 199576 13440 1351 1877 56113 73630 684 41764 6492 50440 1637 15036 2337 3159 4361 57005 5490 234 490 2219 575 103
leaf_count=6668 286 60080 3875 11865 121374 9575 3816 51974 199576 13440 1351 1877 56113 73630 684 41764 6492 50440 1637 15036 2337 3159 4361 57005 5490 234 490 2219 575 103
internal_value=-8.76951e-06 0.000940186 -0.000949353 0.001688 0.000504072 -0.00128924 -0.0013563 0.00219903 -0.00140897 0.00015127 0.00352117 0.000878057 -0.000333028 -0.00027805 -0.000606519 -0.00202468 0.00010851 2.95737e-05 -0.000389904 0.00240735 0.0031186 0.00100247 0.000155411 0.000339675 -0.000651323 0.00213378 0.00603564 0.0046106 0.00590737 0.0047433
internal_weight=807526 401974 405552 148072 253902 261399 251824 84833 245156 130651 1637 123251 144153 140278 79804 45580 129014 122522 52077 72968 20270 63239 60474 70445 79120 52698 724 5234 2897 2322
internal_count=807526 401974 405552 148072 253902 261399 251824 84833 245156 130651 1637 123251 144153 140278 79804 45580 129014 122522 52077 72968 20270 63239 60474 70445 79120 52698 724 5234 2897 2322
is_linear=0
shrinkage=0.05


Tree=22
num_leaves=31
num_cat=0
split_feature=4 4 0 5 5 4 2 0 3 0 5 3 2 0 5 2 3 0 2 2 3 4 5 2 2 3 3 3 2 2
split_gain=260.566 50.1948 42.7143 15.0075 14.3753 12.5507 11.8831 10.7036 8.85118 8.84864 9.02612 7.76021 7.36965 7.15562 9.62785 7.0556 6.71035 6.59336 6.07423 5.99483 5.98692 7.5956 5.8637 5.75921 5.59341 5.43029 5.06459 4.84312 4.766 4.75186
threshold=0.029195602347211951 -0.44305940135292393 0.23256341310807194 -0.31191295311458461 0.065077810428505703 0.95637077967366546 -1.0831596191622528 0.91686104692625936 1.716874148787318 0.35304371805194418 -0.31653746551305584 0.27111354258742115 0.40002017652471084 -2.9408486418307507 -0.4536035223615244 -1.310957932870521 1.5009214228578207 -0.60192186694914829 2.0314480535585884 -1.2742779807580658 -0.049496164539454143 1.3842941743399972 -0.73876452492185318 -1.7138903516580239 2.0314480535585884 -0.37632708314727281 -0.96641026931191665 -0.32472266659771237 1.6410208316260395 1.2485818556690123
decision_type=2 2 2 2 2 2 2 2 2 2 2 2 2 2 2 2 2 2 2 2 2 2 2 2 2 2 2 2 2 2
left_child=1 3 4 7 13 24 -5 8 11 10 26 17 -7 14 -2 -6 29 -1 25 -19 21 -14 -11 27 -4 -8 -3 -12 -17 -15
right_child=2 9 5 6 15 12 18 -9 -10 22 23 -13 20 16 -16 28 -18 19 -20 -21 -22 -23 -24 -25 -26 -27 -28 -29 -30 -31
leaf_value=6.4671058096239887e-05 0.015376763969485525 0.00054286917540159252 0.0012654835189865349 -0.0020052707612180664 0.00014475892835813821 0.0019696216976484789 0.00049558220661325607 2.1053569094136168e-05 1.7621124022646954e-06 0.0021332234870853947 -0.003418122834412566 -0.0018675427680100725 0.0022663600064720853 -0.0001246459499070972 0.0019076835565470362 0.0010939427686929137 0.0021389572509781995 -0.0025371346110071875 0.0030701212381073358 -0.0012319486394338042 0.0025692892351914859 0.0065054466512663141 0.00025353142864121062 0.00019554877655228385 0.0044965768000452882 -0.00061200647696008851 -0.00094675974778730813 0.0019392651391516831 0.0031593421027296428 0.0014355462873195187
leaf_weight=8853 171 6393 80801 11427 21172 44868 15015 13022 9921 4491 1954 91577 1758 79151 592 84140 3729 9745 1352 90509 9102 2649 54474 55495 1362 42081 53094 538 2889 5201
leaf_count=8853 171 6393 80801 11427 21172 44868 15015 13022 9921 4491 1954 91577 1758 79151 592 84140 3729 9745 1352 90509 9102 2649 54474 55495 1362 42081 53094 538 2889 5201
internal_value=-8.33104e-06 -0.000769569 0.00105136 -0.00117022 0.000576375 0.00171732 -0.000530606 -0.00137008 -0.00145609 -0.000103091 -0.000353954 -0.00152816 0.00227788 0.000105076 0.00492631 0.00096336 6.33121e-05 -0.00124331 -0.000242299 -0.00135882 0.00330171 0.00481443 0.000396696 8.99562e-05 0.00131904 -0.000320735 -0.000786671 -0.00226151 0.00116251 -2.84472e-05
internal_weight=807526 469941 337585 293502 197045 140540 69875 223627 210605 176439 117474 200684 58377 88844 763 108201 88081 109107 58448 100254 13509 4407 58965 57987 82163 57096 59487 2492 87029 84352
internal_count=807526 469941 337585 293502 197045 140540 69875 223627 210605 176439 117474 200684 58377 88844 763 108201 88081 109107 58448 100254 13509 4407 58965 57987 82163 57096 59487 2492 87029 84352
is_linear=0
shrinkage=0.05


Tree=23
num_leaves=31
num_cat=0
split_feature=4 4 4 5 2 2 3 1 5 4 5 2 3 2 1 2 3 1 4 1 3 3 5 5 5 4 1 5 2 2
split_gain=235.472 29.0089 27.9983 13.5605 11.2688 10.2662 11.4718 9.65044 8.69609 8.52501 7.71765 10.3622 7.45395 6.85141 6.75023 6.73546 6.69634 6.57079 6.42888 6.37804 6.06909 5.65388 5.5647 5.24015 5.17786 5.17321 5.52312 4.68749 4.47492 4.34867
threshold=-0.16306072374279237 0.77502466925506808 -0.84650265086771925 0.12556694779042377 2.0314480535585884 0.40002017652471084 -0.049496164539454143 1.4534944815745376 -0.97183756815361477 -0.44305940135292393 0.66499189590112817 -1.6158808950479044 1.9929047468773247 -0.11965793149275673 1.6689911335173033 -1.0831596191622528 -2.4011902458976486 -1.2513456293320935 0.10804775147331526 1.7173530212035557 1.4315472770128419 -0.29583514370390013 -0.30304032074210469 -1.0978965857971412 0.64025801314203568 1.3842941743399972 -0.022428597438181097 0.50285608103280099 2.5089135720780145 1.0000000180025095e-35
decision_type=2 2 2 2 2 2 2 2 2 2 2 2 2 2 2 2 2 2 2 2 2 2 2 2 2 2 2 2 2 2
left_child=2 4 12 7 10 14 25 9 -9 -4 16 21 15 -5 -3 -1 17 -2 29 -20 27 -12 23 -17 -22 26 -7 -8 -15 -18
right_child=1 5 3 13 -6 6 20 8 -10 -11 11 -13 -14 28 -16 22 18 -19 19 -21 24 -23 -24 -25 -26 -27 -28 -29 -30 -31
leaf_value=-0.0026094300244197378 -0.0053437843054964925 0.0011365182809393935 -0.0010527858370059837 -0.00026516801025220873 0.0031749788509093341 0.0046039944876576974 0.0004548416325854043 0.0066876827101240224 0.00026381071529083357 -0.00040636245964919941 -0.0018115213255584595 0.001327631479771976 0.00080372170555096279 0.0010087995860528576 0.009360642075538635 0.0012209526397010267 0.00029084102736920967 0.0040348029308294132 0.00047592312769279606 0.0031233572926529516 0.0040315449575049197 0.0027453122851145988 -0.00056898460920113499 -0.0015860022476105219 0.00035857166882799539 0.0044724503489133949 0.0014270326365885028 0.0021418144172830546 0.0089592808451732439 -0.00045240454748988741
leaf_weight=12684 207 126022 130733 21899 3871 1971 11800 546 15005 83631 4237 39126 3562 15728 250 1691 42109 1910 112336 2322 3535 811 17319 99337 1317 5642 4472 6325 179 36949
leaf_count=12684 207 126022 130733 21899 3871 1971 11800 546 15005 83631 4237 39126 3562 15728 250 1691 42109 1910 112336 2322 3535 811 17319 99337 1317 5642 4472 6325 179 36949
internal_value=-7.91449e-06 0.000842837 -0.000864794 -0.000569045 0.000498747 0.00136297 0.00211989 -0.000713344 0.000489355 -0.000800593 0.000455583 0.00105256 -0.00145307 0.000308501 0.0011528 -0.00151442 0.000320922 0.00311777 0.000290357 0.000529538 0.00146398 -0.00107943 -0.00139706 -0.00153902 0.00303457 0.00336696 0.00239891 0.00104354 0.00109827 -5.65265e-05
internal_weight=807526 405212 402314 267721 243878 161334 35062 229915 15551 214364 240007 44174 134593 37806 126272 131031 195833 2117 193716 114658 22977 5048 118347 101028 4852 12085 6443 18125 15907 79058
internal_count=807526 405212 402314 267721 243878 161334 35062 229915 15551 214364 240007 44174 134593 37806 126272 131031 195833 2117 193716 114658 22977 5048 118347 101028 4852 12085 6443 18125 15907 79058
is_linear=0
shrinkage=0.05


Tree=24
num_leaves=31
num_cat=0
split_feature=5 0 0 2 0 3 3 5 0 5 5 2 1 5 3 1 1 1 3 2 1 3 2 2 2 1 0 0 3 2
split_gain=115.004 62.4027 19.3472 17.7564 19.3112 13.8453 14.8872 12.3681 12.19 10.7963 9.82022 9.56597 8.61815 8.54114 7.5964 7.32629 6.89379 6.78379 6.53925 6.39904 6.30371 6.00657 5.7825 6.9372 5.66561 5.50074 6.40398 5.43204 6.42929 5.26062
threshold=1.0000000180025095e-35 0.71818168518592584 1.3927571589475989 -1.0432586566352169 -0.29439015052622913 0.27111354258742115 1.6668201707614847 0.83446368431336282 -2.9408486418307507 -0.29779541222733436 -0.64638733449703589 0.60080076895300683 0.40583378858653302 -0.7660358440043622 0.57586010280944488 1.4836237190500783 1.6689911335173033 0.11101222686479537 -1.5788101916281738 -1.4956118138758332 -1.8583560405187802 -1.6156430375713005 1.7750433161548214 0.530302838209883 -0.32082797546723635 -0.33332067530948123 -0.8230206756511903 2.4385276987182132 0.49471712233083071 1.8843663245419404
decision_type=2 2 2 2 2 2 2 2 2 2 2 2 2 2 2 2 2 2 2 2 2 2 2 2 2 2 2 2 2 2
left_child=1 5 -3 14 18 8 9 16 10 12 -1 17 -7 -14 -2 29 -6 19 -5 -10 -9 24 23 -15 -21 -13 -27 28 -22 -11
right_child=3 2 -4 4 7 6 -8 20 11 15 -12 25 13 22 -16 -17 -18 -19 -20 21 27 -23 -24 -25 -26 26 -28 -29 -30 -31
leaf_value=0.018842147076220225 0.00023811174757311853 0.00034734649253998645 0.002027984254233377 0.0026101611383275423 0.0010631133039755165 -0.00087710159228532542 0.0003153459982618062 -0.0025311398342341544 -0.0013012079872524464 -0.00055741832338005132 0.0032637044804613804 0.0020667970980016866 -0.00041312867734079523 -0.0011424844605692659 -0.0042631720892692872 0.0028968375759723997 0.0038253162406448626 -0.0010637546570747909 0.00046072634121700046 0.00040231960447371619 0.0025974716522378948 -0.00036644357433411292 0.00030035992692518205 -0.0023139556192586113 0.0045219401614269641 0.0020770859123950595 -0.0001411966632158136 0.0053157725959721187 0.00089934096274793237 0.0067404299286235288
leaf_weight=132 70070 72122 22456 3696 65132 57497 19406 664 18408 29814 433 3681 11316 17329 950 1679 2340 55388 83038 2930 27828 140420 2862 46679 1167 3560 37795 1515 6970 249
leaf_count=132 70070 72122 22456 3696 65132 57497 19406 664 18408 29814 433 3681 11316 17329 950 1679 2340 55388 83038 2930 27828 140420 2862 46679 1167 3560 37795 1515 6970 249
internal_value=-7.51876e-06 -0.000421271 0.000746386 0.000852991 0.00110377 -0.000666275 -0.000995629 0.0015617 -0.000433118 -0.00114758 0.00690327 -0.000448858 -0.00134178 -0.00168351 0.0001779 -0.000317457 0.00115891 -0.000585728 0.00055232 -0.000423218 0.00229666 -0.000311383 -0.00189848 -0.0019968 0.00157576 0.000214623 4.97618e-05 0.00238494 0.00225734 -0.000496973
internal_weight=807526 545323 94578 262203 191183 450745 186831 104449 263914 167425 565 263349 135683 78186 71020 31742 67472 218313 86734 162925 36977 144517 66870 64008 4097 45036 41355 36313 34798 30063
internal_count=807526 545323 94578 262203 191183 450745 186831 104449 263914 167425 565 263349 135683 78186 71020 31742 67472 218313 86734 162925 36977 144517 66870 64008 4097 45036 41355 36313 34798 30063
is_linear=0
shrinkage=0.05


Tree=25
num_leaves=31
num_cat=0
split_feature=4 4 4 2 5 2 3 4 5 2 2 1 3 2 1 1 3 4 1 1 4 5 2 3 1 2 3 1 2 5
split_gain=202.907 36.6513 15.8019 12.0055 11.8427 11.604 10.6594 8.0943 7.43463 7.845 7.33679 7.24345 7.16247 7.1607 7.11103 6.20437 6.3005 5.53367 5.20815 5.10933 5.39679 4.81246 4.7846 4.62495 5.05954 4.56353 4.35519 4.1484 4.78448 4.22904
threshold=-0.29114316053271611 0.93455483581064003 -0.68827751751438593 2.0314480535585884 0.83446368431336282 0.40002017652471084 -0.049496164539454143 0.10804775147331526 0.12556694779042377 -2.0038603083123676 -1.0567508504165055 -1.9108341111287592 1.4668704521898321 -1.0432586566352169 1.2001362624050731 1.6249077947469861 0.11758770633599282 2.0194592583064881 1.4836237190500783 -1.3010839420472065 2.5320293585464748 -0.70252705266427773 2.5089135720780145 -2.6483481995673297 -1.0978769739790646 -2.1881816625954618 -1.5386970193031642 0.011192152331798802 0.7123470528025958 -0.67152273929957518
decision_type=2 2 2 2 2 2 2 2 2 2 2 2 2 2 2 2 2 2 2 2 2 2 2 2 2 2 2 2 2 2
left_child=2 3 10 4 7 11 -7 23 21 -10 -1 17 -8 26 27 16 -12 -3 -13 -14 -21 -4 -11 24 -2 -19 -6 -9 29 -29
right_child=1 5 8 -5 13 6 12 14 9 22 15 18 19 -15 -16 -17 -18 25 -20 20 -22 -23 -24 -25 -26 -27 -28 28 -30 -31
leaf_value=-0.0020938844156987275 -0.0030652590289518434 0.00080434179323147701 6.7222022608013973e-05 0.0029109582879864142 -0.0013377078966142378 0.0036249938384467339 0.0011006536850794262 0.00063544467650380001 -0.0053147183488244602 0.0004340845725938237 -0.00078859989776487954 0.0012868198836131913 -0.0072161406278610229 0.0015326531040682693 0.0018676663606703265 5.7876728425301007e-05 -0.0014157172152154372 -0.003903065272265516 0.0074322579267052562 0.0044705776951273566 -0.0015903219363643129 -0.00076583520863455806 0.010323117200921222 -5.2689708397336217e-05 0.0054030641354121094 -0.00031032722661429699 0.00068898274551115355 0.0019258807297401167 0.00077047156779973508 -0.00048074934361227903
leaf_weight=19499 231 6616 20375 4808 3511 9981 14835 85676 598 21950 69533 96246 108 32729 9227 11372 94462 1364 346 3384 412 116244 123 125363 746 2511 10819 1953 15012 27944
leaf_count=19499 231 6616 20375 4808 3511 9981 14835 85676 598 21950 69533 96246 108 32729 9227 11372 94462 1364 346 3384 412 116244 123 125363 746 2511 10819 1953 15012 27944
internal_value=2.50947e-05 0.000725055 -0.000871848 0.000431426 0.000393363 0.00141267 0.00230512 0.000264083 -0.000502445 0.000336099 -0.00117381 0.00117331 0.00160212 0.00112454 0.000526198 -0.00107151 -0.00114982 -7.44912e-05 0.00130883 0.00350765 0.00381276 -0.000641595 0.00048919 -2.59833e-05 0.00340083 -0.00157497 0.000192422 0.000431411 4.21631e-05 -0.000323538
internal_weight=807978 453822 354156 318019 313211 135803 28720 266152 159290 22671 194866 107083 18739 47059 139812 175367 163995 10491 96592 3904 3796 136619 22073 126340 977 3875 14330 130585 44909 29897
internal_count=807978 453822 354156 318019 313211 135803 28720 266152 159290 22671 194866 107083 18739 47059 139812 175367 163995 10491 96592 3904 3796 136619 22073 126340 977 3875 14330 130585 44909 29897
is_linear=0
shrinkage=0.05


Tree=26
num_leaves=31
num_cat=0
split_feature=4 0 5 4 5 1 0 2 0 1 1 1 4 2 5 4 0 2 2 1 4 5 0 1 5 1 5 5 5 2
split_gain=183.124 43.7692 20.1339 18.0753 14.5907 10.6151 9.6214 8.44745 10.3995 7.64589 7.57934 7.29493 6.84728 6.7065 6.43964 6.41416 5.96207 5.70616 5.36515 5.26218 6.17214 5.04741 11.0764 4.76588 4.39607 4.31815 5.56205 4.30087 4.15469 4.17267
threshold=-0.29114316053271611 0.49776082414388417 0.076613822394160772 1.1002080312078628 -0.29779541222733436 -0.90157766349996804 1.0932218441710171 -1.029877733647645 -0.29439015052622913 1.3743400877355672 2.2490191563634228 1.9961588319193071 -0.76149023329396492 -1.4420475941815811 -0.72634385904677068 0.19574957639827323 -0.6887822749435687 0.41196110218032461 1.2485818556690123 -1.7589985057754054 0.097644364801908259 -0.4395473472299336 -2.7869856099437702 -0.23201840492956682 1.5991991040785976 -0.21020253586956764 -0.73876452492185318 -0.92631564584649684 -1.0978965857971412 -0.13016228354182763
decision_type=2 2 2 2 2 2 2 2 2 2 2 2 2 2 2 2 2 2 2 2 2 2 2 2 2 2 2 2 2 2
left_child=4 2 11 9 6 -6 10 -4 -9 19 12 15 16 -7 -8 -2 -1 -5 21 -3 24 22 -17 -23 -21 -14 -27 -20 29 -18
right_child=1 3 7 17 5 13 14 8 -10 -11 -12 -13 25 -15 -16 18 28 -19 27 20 -22 23 -24 -25 -26 26 -28 -29 -30 -31
leaf_value=0.00031483969413598564 -0.00034974550971537602 -0.00099253215453698257 0.00019892692821887517 0.001969376079694067 -0.0013357726104549206 -0.0028369644110671152 0.0031372756218755399 0.00067941497530706225 0.0017508891127834753 0.0027884250075564665 0.0018624363667979161 0.0027241182584996941 -0.00039554244442492061 8.1429318306526152e-05 -0.00010874763813130814 0.011243238490819931 0.0041000096703524341 0.0033561240282334696 -0.0066151853852175384 0.00039820981769074542 0.0013365841954484847 0.00029260842701302778 0.00066207545174863224 -0.00065917472266045773 0.0044418421609234877 -3.3912421803751009e-05 -0.0012137188947675811 0.0020274694422132348 -0.0014443055960585887 -0.00080808498543086845
leaf_weight=5214 85471 3405 41507 32965 18829 2026 1925 66043 34463 5931 2179 2411 39619 69432 7407 250 666 9572 148 33275 55193 31570 23131 22545 686 11758 66426 5256 127437 1238
leaf_count=5214 85471 3405 41507 32965 18829 2026 1925 66043 34463 5931 2179 2411 39619 69432 7407 250 666 9572 148 33275 55193 31570 23131 22545 686 11758 66426 5256 127437 1238
internal_value=2.384e-05 0.000688803 0.000359092 0.00142009 -0.000828255 -0.00027961 -0.00101598 0.000799 0.00104682 0.00104809 -0.00107379 -6.71082e-06 -0.00109915 -1.31391e-06 0.00056084 -4.58151e-05 -0.00134284 0.00228143 0.000267541 0.000936571 0.00101025 0.000161322 0.000775214 -0.000103917 0.00047989 -0.000820796 -0.00103629 0.00179077 -0.00140967 0.000908717
internal_weight=807978 453822 312795 141027 354156 90287 263869 142013 100506 98490 254537 170782 252358 71458 9332 168371 134555 42537 82900 92559 89154 77496 23381 54115 33961 117803 78184 5404 129341 1904
internal_count=807978 453822 312795 141027 354156 90287 263869 142013 100506 98490 254537 170782 252358 71458 9332 168371 134555 42537 82900 92559 89154 77496 23381 54115 33961 117803 78184 5404 129341 1904
is_linear=0
shrinkage=0.05


Tree=27
num_leaves=31
num_cat=0
split_feature=4 0 4 5 4 1 0 1 5 4 1 1 3 1 0 0 1 1 5 4 0 0 3 4 3 5 3 3 1 4
split_gain=165.269 39.6064 20.5558 16.1291 13.2522 7.49757 7.40354 7.14735 6.56264 6.04481 5.99799 5.47289 4.91492 4.91348 4.80296 4.34902 4.19918 4.16423 4.03596 3.93443 5.03569 3.92364 3.92086 5.23071 3.88613 3.7677 6.53568 3.86363 3.73707 5.08806
threshold=-0.29114316053271611 0.35304371805194418 0.77502466925506808 0.33167458146436946 -0.68827751751438593 1.9961588319193071 -0.75334509246727566 1.5855608766766751 0.12556694779042377 0.19574957639827323 -1.6141144564695271 -2.1685471741058122 2.2446280664900251 1.7173530212035557 1.0083613632613189 1.4361723289827377 -1.2513456293320935 0.16600607021758257 4.0390759984379025 1.6910476281654196 1.1429397931838072 -0.4121248411875113 2.2446280664900251 -1.2131704329589257 -1.9544063270898937 1.2127450349208979 -0.44849784491736511 -2.6483481995673297 0.011192152331798802 2.6576535592274659
decision_type=2 2 2 2 2 2 2 2 2 2 2 2 2 2 2 2 2 2 2 2 2 2 2 2 2 2 2 2 2 2
left_child=4 3 13 5 6 9 -1 14 15 17 -4 -5 -11 18 -8 -6 -10 -2 25 -12 -21 -13 23 -9 -18 27 -27 -3 -22 -30
right_child=1 2 10 11 8 -7 7 22 16 12 19 21 -14 -15 -16 -17 24 -19 -20 20 28 -23 -24 -25 -26 26 -28 -29 29 -31
leaf_value=0.00026383237007149724 -5.0828470317240165e-05 0.0046068778190358432 0.00070048428366251689 -0.00099464438965453654 -0.0006188416971588071 0.0027641553606967497 -0.0012664685380046599 -0.0022803733522010526 -0.0012658036626189448 0.00021924847703888315 0.0018298050938923287 0.00064053685757564226 0.0039610460047393567 0.0027795118432587542 0.00021402967717540635 0.0014327232513064768 0.0056746799478875135 -0.00076686994427050195 -0.0061274629332265761 0.0017415484775345409 0.0027432885211376924 0.0012949055894492525 0.0031227029970281976 0.00033386569581432286 0.00052760403633168287 0.00033379108116699083 0.0036049915126419503 0.00067151640578517763 0.0033744079995612986 0.0072234286364336866
leaf_weight=9970 52714 628 8130 4139 133985 2445 166943 2437 3454 92551 35169 68385 886 3120 5664 2634 374 33026 212 8365 8726 34447 946 8906 18843 3032 3076 90805 2709 1257
leaf_count=9970 52714 628 8130 4139 133985 2445 166943 2437 3454 92551 35169 68385 886 3120 5664 2634 374 33026 212 8365 8726 34447 946 8906 18843 3032 3076 90805 2709 1257
internal_value=2.2648e-05 0.000654362 0.00127168 0.000300927 -0.000786843 1.40594e-05 -0.00106337 -0.00113494 -0.000448552 -2.34677e-05 0.00196989 0.000787988 0.000254729 0.000826229 -0.00121789 -0.000579288 0.000339283 -0.000326639 0.000763886 0.00215344 0.00269398 0.000859739 3.01257e-05 -0.000227794 0.000627776 0.000778864 0.00198117 0.000698546 0.0033217 0.00459433
internal_weight=807978 453822 165229 288593 354156 181622 194866 184896 159290 179177 64356 106971 93437 100873 172607 136619 22671 85740 97753 56226 21057 102832 12289 11343 19217 97541 6108 91433 12692 3966
internal_count=807978 453822 165229 288593 354156 181622 194866 184896 159290 179177 64356 106971 93437 100873 172607 136619 22671 85740 97753 56226 21057 102832 12289 11343 19217 97541 6108 91433 12692 3966
is_linear=0
shrinkage=0.05


Tree=28
num_leaves=31
num_cat=0
split_feature=4 0 4 5 5 1 1 3 4 0 1 5 5 4 1 1 4 1 0 3 1 0 5 0 0 0 5 0 0 3
split_gain=149.216 36.5122 18.7728 14.7625 12.0445 8.95039 8.83358 7.7787 7.25255 6.51571 6.393 5.6807 7.27899 5.77597 5.41318 5.40707 5.21944 4.69844 4.57907 5.3294 4.4576 4.38503 4.36666 11.1866 4.37049 5.89886 8.55808 4.23433 4.20091 4.18204
threshold=-0.30734965955576782 0.35304371805194418 0.77502466925506808 0.20469776702416193 0.031435120137820106 -1.2513456293320935 1.3999665120710045 -1.7512086291510074 -0.67220949061321633 -0.77090757734920812 1.9961588319193071 -0.97183756815361477 -0.43196402200548689 -1.0255138442810701 -1.6141144564695271 2.2490191563634228 0.19574957639827323 1.4534944815745376 0.48835934294905808 -0.99894496874540606 -2.1685471741058122 -0.29439015052622913 -0.4395473472299336 -2.7869856099437702 0.15244958697840302 0.014977746659914202 -0.69685783283843339 0.68298579200887566 1.0492297908763573 1.4668704521898321
decision_type=2 2 2 2 2 2 2 2 2 2 2 2 2 2 2 2 2 2 2 2 2 2 2 2 2 2 2 2 2 2
left_child=4 3 17 10 6 -6 8 -8 9 -1 16 13 15 -9 -4 18 -2 -3 19 -13 -5 -22 23 -18 25 -25 -27 -11 -19 -24
right_child=1 2 14 20 5 -7 7 11 -10 27 -12 12 -14 -15 -16 -17 22 28 -20 -21 21 -23 29 24 -26 26 -28 -29 -30 -31
leaf_value=0.00036607001572758088 -0.00033251841626700369 0.00070253787638414336 0.00066546012664633046 -0.00087482817126093091 -0.0018506053277641276 0.00033910249822567516 0.0045074933397652164 -0.00026655930632389852 -0.00064369491268589582 -0.0013197137458079633 0.0025574488063753783 0.004010911983933961 0.001187841673282483 0.0057533541002578762 0.0020457715144305993 0.0019148953179447675 0.011102353670131203 0.0010929175227764446 0.00030401071023150648 -0.0016535691390528345 0.00056300981555161079 0.0012401508921737773 -7.6368821397336214e-05 0.00082978844469765102 0.0023004156319696586 -0.0038124854263737553 0.00093038647258075139 -0.00049922048417276631 0.003922273731656452 0.0020988462393764008
leaf_weight=6676 85238 97457 8130 4320 5379 35241 911 805 112283 141327 2373 428 5918 789 56226 1686 261 3339 4766 13927 81751 33791 60097 15343 3560 1846 1962 17693 2161 2294
leaf_count=6676 85238 97457 8130 4320 5379 35241 911 805 112283 141327 2373 428 5918 789 56226 1686 261 3339 4766 13927 81751 33791 60097 15343 3560 1846 1962 17693 2161 2294
internal_value=2.15156e-05 0.000612277 0.00120151 0.000275616 -0.000760013 4.9136e-05 -0.000867001 -4.01768e-05 -0.000953943 -0.00116418 -1.99045e-05 -0.000186472 -0.00035942 0.00271318 0.0018714 -0.000799498 -5.57545e-05 0.000782778 -0.00103884 -0.00148468 0.000702085 0.000761044 0.000220604 0.000809952 0.000691669 0.000392617 -0.00136881 -0.00122842 0.0022046 3.60975e-06
internal_weight=807978 460149 167313 292836 347829 40620 307209 29230 277979 165696 172974 28319 26725 1594 64356 20807 170601 102957 19121 14355 119862 115542 85363 22972 22711 19151 3808 159020 5500 62391
internal_count=807978 460149 167313 292836 347829 40620 307209 29230 277979 165696 172974 28319 26725 1594 64356 20807 170601 102957 19121 14355 119862 115542 85363 22972 22711 19151 3808 159020 5500 62391
is_linear=0
shrinkage=0.05


Tree=29
num_leaves=31
num_cat=0
split_feature=4 0 4 4 4 2 2 2 0 3 1 3 3 2 3 2 0 3 2 4 0 2 1 0 2 3 2 3 3 2
split_gain=134.695 32.7509 20.9351 10.9255 8.00309 7.50936 6.45446 6.34595 6.65094 6.31483 5.86029 6.90619 5.69796 5.63714 5.34599 5.06307 4.8396 4.70821 4.79273 4.63073 4.44514 4.3774 5.05776 4.13929 3.9328 3.88951 5.18907 4.70665 3.88293 3.84305
threshold=-0.29114316053271611 0.15907107457821412 0.93455483581064003 -0.68827751751438593 0.038369315382664755 0.6994239633828081 2.0314480535585884 -1.0567508504165055 -0.22385283244614754 0.37642124659304549 -0.27796732370703264 -0.41743808686330802 1.3990510889660988 -1.1270982321612126 0.11758770633599282 1.4705197192650437 -3.0901154515250782 -0.0087294675426743979 -1.680127939923008 0.10804775147331526 -1.7642428713401228 1.7259654208192361 2.2490191563634228 0.91686104692625936 1.2485818556690123 0.39575080045468453 0.60080076895300683 -0.74422786741224212 -1.5039136998281515 -0.54079999653329602
decision_type=2 2 2 2 2 2 2 2 2 2 2 2 2 2 2 2 2 2 2 2 2 2 2 2 2 2 2 2 2 2
left_child=3 4 6 7 25 10 19 8 -1 -7 16 -12 24 -4 23 17 -6 18 -5 -3 -20 22 -16 -9 -11 26 -2 -28 -15 -18
right_child=1 2 13 15 5 9 -8 14 -10 12 11 -13 -14 28 21 -17 29 -19 20 -21 -22 -23 -24 -25 -26 -27 27 -29 -30 -31
leaf_value=-0.00021071793304207453 -0.00023130624372419276 0.0003546292962546202 0.0010014626757278071 -0.0017845837999082065 0.0027703579070609045 0.0018659703812672777 0.0033495835943742553 -0.00061946313002820858 -0.0023479555907870713 -0.00092577483433555006 0.00074482798182679173 -0.00056221579063357664 0.0018807995476307366 0.0040189967564316816 -0.0012111020676777882 0.00062699571524484174 0.00020588226315629545 -0.00074202309315179787 0.0043044591865812739 0.00094400911358092504 -0.00010775151093944964 0.0001100793909936266 0.0038817417956128414 0.0011877988627501835 0.0011333502567199081 -0.00085965982799144117 -0.0012103983150760762 0.0018765471586362423 0.001995959063994216 0.00086268159236958753
leaf_weight=4843 41535 60249 15400 4342 2212 14384 2304 68895 14656 6986 14005 36306 4529 2506 95663 11096 72709 79577 576 74584 63699 6998 490 3321 3471 18905 1573 5743 44315 32106
leaf_count=4843 41535 60249 15400 4342 2212 14384 2304 68895 14656 6986 14005 36306 4529 2506 95663 11096 72709 79577 576 74584 63699 6998 490 3321 3471 18905 1573 5743 44315 32106
internal_value=2.04398e-05 0.000590737 0.00107062 -0.000710349 0.000214776 0.000383695 0.00072549 -0.000961433 -0.00181713 0.00111763 0.000246694 -0.000198376 0.000399342 0.0018313 -0.000866289 -0.000403188 0.000455911 -0.000480323 -0.000176821 0.00068065 -6.82115e-05 -0.00109728 -0.00118515 -0.000536353 -0.000242288 -0.000250695 -1.50304e-05 0.00121283 0.00210424 0.000407067
internal_weight=807978 453822 199358 354156 254464 186708 137137 194866 19499 29370 157338 50311 14986 62221 175367 159290 107027 148194 68617 134833 64275 103151 96153 72216 10457 67756 48851 7316 46821 104815
internal_count=807978 453822 199358 354156 254464 186708 137137 194866 19499 29370 157338 50311 14986 62221 175367 159290 107027 148194 68617 134833 64275 103151 96153 72216 10457 67756 48851 7316 46821 104815
is_linear=0
shrinkage=0.05


Tree=30
num_leaves=31
num_cat=0
split_feature=4 0 4 5 1 4 5 2 0 5 0 5 1 5 1 2 0 2 0 2 5 0 2 4 0 4 1 1 2 2
split_gain=125.228 23.6477 22.9573 8.32076 8.20786 7.85256 7.74676 7.27384 7.20241 16.198 7.02404 6.75343 6.59574 6.13223 6.00176 8.78555 6.08668 5.3903 5.07986 4.98608 4.51682 4.4728 4.469 4.33783 4.30762 4.25958 4.09751 4.69471 4.1358 3.99096
threshold=0.029195602347211951 0.23256341310807194 -0.44305940135292393 -0.010728051577254849 -1.2513456293320935 0.43240621332559898 0.74684191589024362 -1.4179875378618181 -2.6063092864002928 -0.57415048235383404 0.13097907549080987 -0.89199537811612506 1.4534944815745376 -0.31191295311458461 0.11101222686479537 -1.0700575478204137 1.3927571589475989 1.4705197192650437 -0.46747765666778401 -1.7138903516580239 1.3636963656530365 0.60611255031189681 1.7750433161548214 2.3276626449303239 -1.059175059471021 -1.335957831295121 -0.25479487385588945 -1.5576299221282823 1.6410208316260395 -0.18558781913833272
decision_type=2 2 2 2 2 2 2 2 2 2 2 2 2 2 2 2 2 2 2 2 2 2 2 2 2 2 2 2 2 2
left_child=2 6 3 12 -5 -3 8 -8 9 -2 13 17 14 -4 15 18 -17 -12 -1 -15 25 24 -13 26 -16 -6 27 -9 -28 -27
right_child=1 5 10 4 20 -7 7 23 -10 -11 11 22 -14 19 21 16 -18 -19 -20 -21 -22 -23 -24 -25 -26 29 28 -29 -30 -31
leaf_value=0.00050271923363450096 0.014807794394582139 0.00066969472916381936 -0.0007747204814156439 -0.0021925412791634576 -0.0037597458277429854 0.0014770455777714151 -0.00026300320932549594 -0.00013446330713266411 9.4505943983389751e-05 0.0014407627999610158 0.0023284182537733861 0.00013028461237299459 -8.0345193457812762e-05 -0.0023303352973677895 0.0009104759590607709 -0.00051831159104336814 0.0037213677255033754 0.010858930422450012 -0.0019140883214605157 0.00012822540219501816 0.0020966788006404045 -0.00051209855370496426 0.0022758068338606919 -0.00016288277814053686 -0.0013688497480486787 -0.00053302275981911579 0.00042068699920167732 0.0018566943202336515 0.0032943031601909336 0.00072924526142660357
leaf_weight=2470 241 43743 47259 3940 721 96694 12346 3355 129250 3803 1464 75224 22554 2156 2113 85699 855 212 18158 47417 2943 19930 2508 6121 109046 11778 15919 25164 1359 13371
leaf_count=2470 241 43743 47259 3940 721 96694 12346 3355 129250 3803 1464 75224 22554 2156 2113 85699 855 212 18158 47417 2943 19930 2508 6121 109046 11778 15919 25164 1359 13371
internal_value=-4.42876e-06 0.000729535 -0.000532455 -0.00080326 -5.20889e-05 0.00122557 0.000376919 0.000827844 0.000159518 0.00223736 -8.13522e-05 0.000267217 -0.000897588 -0.000367199 -0.000974945 -0.000697424 -0.000476431 0.00340746 -0.0016247 2.12991e-05 0.000240605 -0.00120185 0.000199509 0.00108725 -0.00132552 2.94557e-05 0.00125433 0.00162245 0.000646711 0.000138089
internal_weight=807813 337995 469818 293578 32753 140437 197558 64264 133294 4044 176240 79408 260825 96832 238271 107182 86554 1676 20628 49573 28813 131089 77732 51918 111159 25870 45797 28519 17278 25149
internal_count=807813 337995 469818 293578 32753 140437 197558 64264 133294 4044 176240 79408 260825 96832 238271 107182 86554 1676 20628 49573 28813 131089 77732 51918 111159 25870 45797 28519 17278 25149
is_linear=0
shrinkage=0.05


Tree=31
num_leaves=31
num_cat=0
split_feature=5 0 2 0 0 5 5 2 3 0 1 0 1 3 2 3 3 1 0 3 3 1 5 5 2 3 0 1 2 3
split_gain=58.8545 41.6702 15.6955 12.3264 12.5939 16.6744 11.6548 9.57631 9.63124 8.38702 7.68068 6.14289 6.12736 6.09092 5.43816 5.85978 5.35811 5.70747 5.17063 5.01291 5.01289 4.74822 4.56912 4.72598 4.95334 4.53132 4.47012 4.37837 13.6071 9.75531
threshold=-0.030323576516511849 1.2242166005969792 -1.0432586566352169 0.6165597508440025 -2.6063092864002928 -0.64204567830888748 1.2127450349208979 2.0314480535585884 0.1080499359107548 -0.30408411637194438 -0.42159419465238629 -0.35071887022618881 -1.8583560405187802 0.57586010280944488 0.11878348665485401 2.2446280664900251 1.6668201707614847 2.4275867823186466 -1.6945739650627218 -0.42847563268716521 1.5344935777427355 1.4534944815745376 -0.29779541222733436 -0.69685783283843339 0.12970356005548037 0.55287500205302542 1.8594598440323169 0.84590897247181995 1.4705197192650437 1.2264221353120537
decision_type=2 2 2 2 2 2 2 2 2 2 2 2 2 2 2 2 2 2 2 2 2 2 2 2 2 2 2 2 2 2
left_child=1 3 13 4 5 -1 9 8 -6 -4 20 -8 -13 18 15 25 22 -18 -2 -16 -10 26 23 -12 -25 -11 -3 28 29 -26
right_child=2 21 6 -5 7 -7 11 -9 10 14 16 12 -14 -15 19 -17 17 -19 -20 -21 -22 -23 -24 24 27 -27 -28 -29 -30 -31
